1000 48
411 -0.049492705219453585 0.018257782124427892 0.006129483350710538 -0.03303538027993443 0.007016133245175611 -0.023403423780750277 0.04970487055826276 -0.026808466764086752 0.009624892548054244 -0.014386200711933316 -0.01642915366440312 0.023890657233626857 -0.03516038638341516 -0.03523735529782479 -0.02376620569163859 -0.03926542489458301 0.013609826619918006 -0.01876644011049543 -0.026659113608677096 0.00552438884279926 -0.013542827297447393 -0.016272748450772822 -0.01260396809997533 -0.014333569543448263 0.01726944372378705 0.008818101103815269 -0.030501863932795432 -0.021224238851246656 -0.010430573037104676 0.011132395640315897 -0.008193033516607568 -0.0001517825893831997 -0.02223086731633638 0.07112399504326786 0.008504943428166429 0.014047350760291252 0.009564661519648774 0.020380400555890993 -0.005908310722396423 0.0061771913063486715 -0.015349538446720172 0.053874974883913004 -0.007340777264109541 0.006156847287253609 0.020577045077861678 -0.06271746875986962 0.023521307169662505 -0.04046968240015607 
944 0.0019418288232960995 0.055690529755020556 -0.005768748347925661 -0.018242513033377514 0.00029774457990890997 0.003515654817323767 -0.0005574137481425771 -0.09253247142879355 0.020919529934852996 -0.05443865814820148 -0.0034370160698448796 0.009695471296660799 0.014631403773163994 -0.02776927324991358 -0.0035864120987355035 -0.0317865583852359 0.011270768266890049 0.016718969240323688 -0.013425516308715245 0.029454938174509213 0.008849337146003292 0.013214564594113682 -0.0075071667928889915 -0.019858665265355423 -0.015690486677278844 0.005235293709092552 -0.0017243446088560297 -0.003754830240986119 -0.02459903074089225 -0.027341112788302282 -0.00595295545780794 -0.01195468823924268 0.0262135250189567 -0.002741954954005685 -0.010336480335694042 0.015963934903321673 0.062014439025734024 0.03134645825447875 0.023449800715275748 -0.01724373293754503 0.005771721553401597 0.03822858086163398 0.00573334261594693 0.017984458603296703 -0.007486884370828618 0.009119854677223838 -0.009382547382470543 -0.028937541821651914 
389 -0.0222129129276618 0.025433365410998707 0.02038261675574834 -0.027808301958456468 0.060225552115296885 0.005751933602766397 0.05166780859829197 -0.0326456023395332 0.11418112382990826 0.07581380865840137 0.013644627382140596 0.028290109959446162 -0.009648975609257548 -0.022047164815626095 0.05645074393857403 -0.004075084708257002 -0.020749049430333535 0.004023390081287374 -0.03911995878370268 -0.040133489173967786 -0.03562625957322382 0.04887830267560548 -0.022651129626823675 -0.005025612414082735 -0.023473837176642743 -0.013223482644804474 -0.038181602003557386 -0.08163248862586665 0.03714143185751771 0.019866849803646114 0.01904571199562204 -0.003196977103798472 -0.06561861704692112 -0.081188351438814 -0.009493549962334856 0.07818131095365895 -0.038540258324954016 -0.0048265051722215105 -0.04391425928699843 0.008880221191320445 -0.0010063938487773526 0.05273443135514325 -0.028378149287994606 0.007924337064279838 -0.0024422752342989945 -0.09410543569446758 0.02422925053664673 -0.1036787193351712 
847 0.02290730478774724 0.0027756023880583748 -0.006330390270490255 -0.0017380116676485363 0.05776001818442349 0.012307686219262582 0.03907723292130336 0.02319777678546285 0.014450898464108283 -0.015210487211196586 0.04243849944785995 0.0029179897530761806 -0.0012236752211259908 -0.01730928318204157 0.03707240619477465 0.035676857955901566 -0.002417419603694892 -0.027809852977558527 0.023534157884812636 0.014472337926874263 -0.036144253325464885 0.06466893217768309 0.02508121689535622 -0.004080181544298768 -0.009510445310993513 -0.052386683851902066 0.0019342327455291843 -0.014742354506340538 -0.0004122799150280316 0.0662443761788929 -0.01756812622196253 0.02187073684840917 -0.04612633534058826 -0.008530555950471643 -0.023420196151387167 -0.019416355141896678 -0.00799680506530964 -0.05875782875460856 0.01597990004588907 -0.013883369575308254 -0.03608463282705065 0.01312945777692381 0.03297100439524489 -0.006842907859921195 0.01444385333439417 -0.017325131474876028 -0.01064309995188009 -0.02899110517444112 
342 0.023143151431505464 -0.003971849074884082 0.019862225064050977 0.0027132563032120733 0.01757957346111473 -0.0023848516539498295 0.05425405054364572 0.019809903546594697 -0.007991933066994406 0.010924975728417125 0.0018037945634742274 0.05731785691390981 -0.011829126083238694 0.005482098323321362 -0.03961445458209886 0.013186556831229296 0.0214332822373755 -0.002820611093852354 0.003969034433323574 -0.02648699649920245 0.021323627640351096 -0.01841202707718825 -0.006287843433444746 -0.014049178521022193 0.016467869673480236 0.029441516472385517 -0.025011308778362305 0.012455962847767866 -0.008114497759580926 -0.01876410490456479 -0.02879169329083735 0.012945413832321034 -0.006284737818110495 0.03868434371929862 -0.027603921245169808 -0.011637022524880011 -0.010772586217044354 -0.019900997576213903 -0.011120924248360177 0.022943968743174798 -0.012497364024895133 0.012477122618740899 0.007834755301592746 0.00969182505448516 0.022547645286485937 -0.04689835333560919 -0.004226750526654204 -0.02704336397543687 
875 -0.00698368594343088 0.03744351688402895 -0.015551527884053623 -0.04189729731801076 0.04928929251670838 -0.04156637517957906 0.02298986674363075 0.07424627650386303 0.014820164878583902 -0.05287854456189543 0.023897402935505543 0.005390400012459277 0.021182963502225642 -0.04936959983249886 0.00015343532534372277 0.002689988562106455 0.018054651638756813 -0.01543845926552013 0.03402375248934261 0.0007354404696642785 0.04281706190025073 0.006602149302484556 -0.024207122607703958 -0.026767478267600717 0.006892187977394292 0.028601956011848936 0.019019198625301218 -0.023486484546918474 -0.029487947130525074 -0.007749438930649013 -0.015298645746667854 0.022940940276944533 0.06628947104215084 -0.034592400027376416 0.001832104478548546 0.00018970506209604781 0.0626539048347693 -0.10772642164263739 -0.0393700151061753 -0.013219172929295888 -0.07915330975866586 0.08152766003959114 0.10202465786863679 0.033852515365101116 0.026427920063340413 -0.0011699094098544234 -0.016323934172756332 -0.07312989654664137 
969 -0.027328660801262727 -0.02524719783966656 -0.00013705397324076588 -0.005558825407908606 0.011311580880582903 -0.023587514815749208 -0.0134971554705762 -0.002391231314149389 0.030728101066002454 -0.007336451358298385 -0.0010890596192356904 0.007899676695342282 -0.01270856443575913 0.0127361889417645 -0.008084130327925449 -0.0051973215621109 0.020403336632466847 -0.0015228619679993353 -0.009404673285478391 -0.014154777171428639 -0.020355288712038868 0.013664151697465578 -0.042634941149913876 0.024212814512713992 -0.019216044775214276 -0.03325674443786392 -0.014931560107083778 0.036285462786612835 -0.004189031693610217 -0.0027717570195069795 0.019561390714181753 0.03383649802977757 -0.018710237745310145 0.028862181656544028 0.010465358577610252 -0.013776451766152203 0.020831877836556358 -0.008707795785238401 0.0003205890799019381 -0.002067493505063098 0.0228901119885423 0.016443750117618536 -0.012575117235260369 -0.044569517181113856 0.042005425678567215 0.010244585654693328 0.030677136906504924 -0.030822995482917618 
989 -0.02041982126780256 -0.03541172187635706 -0.016142103611106295 -0.05211884540857647 0.022606571354659752 -0.07610215598444978 -0.03043012663165105 0.015589220059763965 0.009707770854872904 0.012052737734422668 0.00965141667930812 0.03223507113002306 0.0045288122991256775 -0.039081200727919485 -0.04411518875932539 -0.004835506932848422 0.028591570390827752 0.0026975159351090064 -0.03238025085250796 -0.01973730463657959 0.035966261751624075 0.0035684247191436163 -0.06709737841212338 0.061737830415066544 0.03676075784405488 -0.01693739498387569 -0.047958169667942564 -0.00754150167892393 0.0029062406995696757 -0.020186254338772663 0.0026697738609674435 0.018228418297777074 -0.034704644135143396 0.0685120522345142 -0.027853911301767245 0.03769893182739964 0.03533693761813744 -0.016205096285895497 0.0049895191595252155 0.004741152149063142 0.05119929960345475 -0.0007935601472990905 -0.03532161593824446 -0.08389450493338041 0.09130315153558514 0.051232156675795636 0.05290334942483101 -0.05454846660770913 
79 0.04160944017061087 -0.00928150344445533 -0.050283254654623175 -0.01495236513058624 0.009957426129028904 -0.04479764770782008 -0.015897130797775536 -0.014103766720437796 0.0039281789067564235 -0.05654926111807682 -0.022498643024504224 -0.0030378172960498647 -0.021524466834193425 0.01769236848985527 0.0014296217024310943 0.01733596179417885 -0.026003596897895467 -0.03411717067309761 0.027377137098559098 0.031692418796437104 0.02127563021973294 0.012884947463165495 0.0073384992601280286 0.022269659339404647 0.004538447043302127 -3.6663911244974474e-05 -0.005654425089453659 -0.015749482992235515 -0.005401662880898119 0.02144674883104116 0.0021300388570648088 -0.01716594221402091 -0.025493204289317336 -0.030315654653589912 -0.04891488134718059 0.017937803842687727 -0.00474812676779921 0.0031296275012588325 0.016079601530672578 0.0214337195829948 -0.00521460476901421 -0.056323026567119974 0.013291169634466684 0.004090516250720962 -0.026764580591770275 -0.0028278251339314705 0.004416787564101264 -0.02449346403948512 
524 0.04340863529830534 -0.021118023521504208 -0.0029527941932744627 0.007340363742590897 0.004883074212391877 -0.030330941203068663 -0.00258629899999343 -0.017964457978844165 0.0034444929393340163 -0.018273444714680537 -0.0430699384676572 0.02672874275893247 -0.039693229320899664 -0.00441722093145971 0.018211584450441506 0.031067225053416223 -0.022984752283653015 -0.01776354403755738 -0.019368118572403892 -0.013337018905173923 0.017774047284553476 0.017927243032253872 -0.007449541839530457 -0.00219908326647942 0.01778447908638741 0.03516902470218665 -0.008957016884962796 -0.03805960003519862 0.00961346020657533 0.005425280953947636 0.010795783200325572 -0.03325942413732696 -0.011116857745596462 -0.035270608280155304 0.0058623440959519905 -0.010522257537101964 -0.03247296455964552 -0.0088910715902501 0.0006181373094087799 0.009910647058058301 0.0038770141188211073 -0.03205606028422014 0.0266769534662683 -0.02094268987650069 0.006650419612176372 0.0019142185253963574 -0.02668124824571819 -0.02739658348252692 
321 -0.008357566991676814 -0.03238557308372685 0.004704756621124073 0.03706462881682857 0.011496173995154763 0.025612437499399024 -0.026213577213903633 -0.043137559529625655 0.023680120035364224 0.029082147590432966 0.04791960865921779 -0.010207420276380535 0.027543949678423236 0.001547890301911908 -0.020603902769114075 0.01971210600387535 -0.007638041448966917 4.547937599896354e-05 -0.01828624488230285 -0.038676798624556606 0.02997741298739768 0.00782572798539781 -0.025249809909225176 -0.044373831795486776 0.04029901151842227 0.016075912445957196 0.035962328948420524 0.016914254692397754 -0.02274530937033632 0.0351582599423236 -0.026388883577023497 -0.0006273055122745914 0.004385819841160891 -0.029571290027372334 0.01671609742980125 0.018931777246902287 -0.0022851855996984427 -0.027154426642226212 0.004229855914750334 0.029475932983654776 -0.012046177622633611 0.03744455250232619 -0.02713582761729182 0.010590768748336565 -0.026616959896464263 0.026970706901974145 0.008605685120570973 -0.025320510851117934 
572 0.014227925172059995 -0.02936031190867843 -0.03293467081394691 0.023906219603241054 0.01352925999668797 -0.012136449931878764 0.014468802658619256 0.022804434590228975 -0.004907496057855499 0.027084752915932903 0.03106657921895351 -0.05357267228590587 -0.025360809765250146 -0.006595431880570981 -0.043742849486849276 0.04158833846153747 0.021546445410732314 -0.0022542676321189972 0.06060930919865791 -0.033912624584123835 -0.014409704061455324 -0.015373854710226635 -0.040491979456101584 -0.03433208366621935 0.022699583464703736 -0.0033155871246304076 0.09628773819097544 0.04040228999420017 -0.005011639522195494 0.015097452933763593 -0.002393311819422977 -0.043532103320986906 -0.0176662567207909 -0.03122084856724428 0.0009766239044180884 -0.024657049032309745 -0.013172746190505565 0.003648758025210283 0.008463204930175614 -0.0032661764328168934 0.000944655256686168 0.020102956205121474 0.016559087992603607 -0.036198670472171714 -0.047235817283123864 -0.002204782098209329 0.04018113660134558 -0.03386842324931938 
735 -0.0010768349467325385 -0.040609075205713115 -0.046237527004400834 0.005993383269255449 -0.0012894291136853488 0.02816416734785998 0.06483610189164642 0.02734621847415389 0.0027463669296420015 0.028701249278836393 -0.03012766904016534 0.011606886599422894 0.02520558244430524 -0.013824767249232818 -0.0013222484723911729 0.006510971277463529 0.02089614885560177 -0.03170051388970778 -0.022225644733272914 0.026944670884823833 0.006552360790756643 -0.05390788578761119 0.05539429303998861 0.007564013615400483 0.0036884375855698796 -0.034193127357202244 0.013178395829369947 0.00032844374210791216 -0.03922160925372354 -0.022976773581603195 0.02334190430592317 -0.08498767367450728 0.012518530098271922 0.03305495654705259 0.021757985756410095 0.032748815429021444 0.008022490837817123 0.031064176605873198 0.029395232780789895 -0.00588974459185408 -0.05789090769063453 -0.009332620948800748 0.011047571365947995 0.0063328007537170805 -0.0011843472872321088 0.0025114375046622157 0.038363992284846715 -0.02360523347925445 
899 0.013573874179452418 -0.009246179426018514 -0.013713921828319696 -0.010925355785490828 -0.019505420053272753 -0.010380374255186559 0.018901074307095565 0.03243779650942329 -0.00493399708558303 0.04741273394186125 -0.015785774668966714 0.03732336328537561 0.017693998637523786 0.02385745015464152 0.026027013660497277 0.04345675130583787 0.021359321212548476 -0.035126936527349176 0.003763571665137819 -0.011650949778542726 -0.011034314210438167 -0.03468513576126514 0.06308761360564334 0.008911323562200726 -0.02041164004862113 0.004116695576129105 0.02624560533573982 -0.008354239559303126 -0.035643303268429016 -0.009770611250375916 0.012918153587497863 -0.05106736992323452 0.053650559398330515 0.005054529262354234 0.009556458766070466 0.003536583759353438 0.03442831914763274 0.002379511020668065 0.07093524700064675 -0.018647207236507625 -0.01112097017808041 0.030006180867634406 0.012854034156968917 0.01849967482779552 0.014873551342646636 0.01820572583463255 -0.0037451989790979615 -0.022434474913583604 
133 -0.006760304253200548 -0.02881824715483417 0.018270100628335458 -0.04196359044164152 -0.012178605279050195 0.06192038945551811 -0.03228750443401714 0.04370993476545566 -0.006205760991531779 -0.021820561242806173 -0.0003118643018629687 -0.004446829938508683 0.0055345212938321614 0.006645917828812467 0.019922814747129307 -0.028051495607797804 -0.031481757446629496 -0.013224665324438363 0.018304311482252027 -0.025106119417256472 0.023607667725760336 0.02063734026603666 0.006646678278698863 0.0005978386502949516 -0.01836639361160318 0.01810896162028785 -0.029850389909921372 0.036823119430054056 0.0034867419595635703 0.02299944520514021 0.004352829328731522 -0.03336403733534843 0.04929750071029896 0.013498242774832886 -0.0008228706658688313 0.01424769074964098 0.0037222881404075274 -0.007388508722916776 0.005513521424639114 -0.04428217967610611 -0.01564442439008491 -0.008356017769772453 -0.04404987216083872 -0.005904533817237149 -0.027785509839953076 0.00022331770244370455 -0.01291690598887591 -0.021934049463659892 
219 -0.02535664040249078 -0.043723041559230166 0.0033923922102903166 -0.05210371104076013 -0.019033742971568898 0.060188255419351445 -0.04137891551873641 0.033972214957912715 0.002230051735421028 0.009482450976957203 0.044223513768901844 0.012933607675698832 0.02382186029729661 0.008714177002378318 0.0005666374930447509 -0.015295682578153561 -0.011582041969460116 -0.0019101865346613659 0.03548431819161581 0.044322044906051905 0.005969946402706449 0.038773289899028104 0.024611465765258373 0.019670589022645037 -0.06542695774864876 0.04867419063848003 -0.03178446085419615 0.052688355341484375 0.008102919391220362 -0.0016841457422894768 0.02117641875734318 -0.05581137018203199 0.07231241571453056 0.05494856058687772 -0.03176612620541994 -0.006302274958317787 -0.001688427414551017 -0.06465547612573333 0.03837542197158083 -0.043474755707739704 -0.018624379487971385 -0.023508973735684897 -0.08099377758986055 -0.03774669820423123 -0.030042105073777074 0.007871908841576602 -0.01795984315845137 -0.03752169463293331 
27 0.014366447340627947 -0.008732226539696401 0.005565834555362812 0.021943994966762453 -0.038200446903782714 0.0011649900909571872 0.04657342910955836 -0.011317615785376678 -0.01739481291447604 0.02022192200475624 -0.019643551233884702 0.023994509957530746 -0.0025234914451775256 -0.0328320908805317 0.018776551431431466 -0.020350709399900024 0.03414895884070425 0.02048078574860638 0.025336239881167587 -0.04492929442158689 -0.023838954774602194 0.0054768026823597766 -0.026360914700065474 0.027196256951513828 -0.009464611060554122 -0.015630050753182457 -0.03391341662322472 -0.010085189680294187 0.04803280719346193 0.037443883838164875 -0.031494812273696486 -0.009639492500651485 -0.001952647783133303 -0.03660012378544397 -0.017158918734841527 0.06596767722822723 0.003203738072435545 -0.009721953409746822 0.014356561543201089 -0.0015897358765791308 -0.0048274591841787 -0.021639844609976328 0.007942648509697284 0.015223095571125346 -0.016013779682132797 -0.02633951387519224 0.00805516633337691 -0.022181831591419572 
838 0.0162478241752454 -0.010894575407225073 0.01816265689606362 -0.013162176331973906 -0.025628266868708546 0.00811202038427293 0.008040038911710085 -0.008579371341533807 -0.011652288413218791 -0.004769253013683664 0.02143947231620485 0.004517290082461907 0.03940566049966179 -0.007123153296722696 0.025217349262581984 0.002116038712931947 -0.005267538062997521 0.011872852997294644 0.030607639057629244 -0.04686448921184958 -0.0017319024999537392 -0.021904833644655876 -0.031122734484302986 0.030609942853288486 -0.0050883543144000735 0.013158793061414603 -0.02244043480986204 0.0015825479571357143 0.029326253732479116 0.040874407644670374 -0.03675800108495183 -0.005521000396669238 -0.019522472292275658 -0.01819980663225125 -0.0057693018962591295 0.054151915340949236 0.024794972237230924 -0.03841435949413964 0.0007132983565090364 -0.02030128431075316 -0.032428044963138676 0.008379076113098792 0.028157250490537772 0.020918593268062977 -0.002250351138219188 -0.010230820840661813 -0.015302158486884479 -0.03456312777514877 
499 0.007595847472794209 0.017283145826060997 -0.0032938269624578037 0.019676333840796874 0.018357325839943307 0.03855530569462197 0.037201106751697466 -0.008735153320798581 0.00659276731127115 -0.028394346436736148 -0.002593394459382399 -0.01641849269890299 -0.005641739841424567 0.01719497378779694 -0.012232924472459784 -0.005120486718968875 -0.019848432594231902 -0.00017772104579575593 0.02437749623842229 -0.018247353122027497 -0.02506269667368821 0.015891613121765052 0.0011916589634779092 -0.015137453689194147 0.040185909389374594 0.05375508166846522 0.00045192820180592986 0.018120952517134074 0.018538046516593167 0.012300196657689283 0.013461827086259329 -0.000711448490896587 -0.012325582214122398 0.004707746542088716 0.012770372953667203 -0.0031582800963784532 -0.005924022221117187 0.011755490702759434 -0.004960396889297335 -0.018110135711921743 0.006090182029289827 -0.010014105103728032 0.0030431974039623216 0.003583607354597804 0.014059047416702372 -0.0029851415250243263 -0.024177714233748492 -0.025346313110519197 
903 -0.009175846235828134 0.02226132597041206 0.009886890276684868 -0.017089983559725803 0.012461963548343355 0.03307195303678822 -0.012025624354561096 0.0275425822672665 -0.007461630030190312 0.00626753963473678 -0.019202943939607385 -0.014852288876728785 -0.010948612784341647 -0.011895424567344747 0.0055352818175122545 -0.031891344840957805 -0.017459655513569795 0.004894457207248975 0.019149601508666587 -0.024068190210388394 0.005620152006097275 -0.006078453902567192 -0.027141992086936774 0.004959108787000072 0.008968119735584132 0.03894956873191495 -0.011702946687765827 0.04283319145252941 -0.008134489637545296 0.022431736877997512 0.011874405935094945 -0.0036695683166113836 -0.012708441329489908 0.002271045235407567 -0.01314412539779092 0.002903513779536613 0.027930985973236358 0.04244192548777368 0.025576300224449556 -0.070575616802299 0.010319398770339848 0.017662960048257566 0.007699561203252611 0.022682487268706315 -0.010941275777809805 0.01093976977833571 -0.0079578661749875 -0.029075058970185377 
93 0.030194828726960866 0.06271483502972076 -0.021480940710963486 0.036820644309308995 -0.04864470615530402 -0.030100570395148126 0.011947753651823288 0.02980060207760826 -0.030372297009309334 -0.026077493161221425 -0.040426131924973095 0.012735627298821914 -0.025032130256312814 -0.003042190957341561 0.015206441789702705 -0.05052192055085746 -0.015078050383371917 -0.0004608020542042009 0.019494125946739296 -0.04321515669882577 -0.012356429759055324 0.08188133511200286 -0.002432297842131915 0.007276378196108826 -0.04939890651862077 -0.023068643054525842 -0.06754850501869974 -0.04923650187734142 -0.03044843115287371 0.05019912808584008 0.015461316109011095 -0.01961435740620988 -0.0049165229578013985 -0.00793927037157958 0.0044814754316630425 0.06290648865639366 0.016174537974723145 -0.020928823362954097 -7.634171182741851e-05 -0.0038868942569336836 0.0009172189513142009 -0.025910814892866788 0.021153608559807486 -0.005661002968860579 -0.060990927209907224 -0.04236550671499612 0.002437701935972979 -0.04461108223170624 
886 -0.01300036458611452 0.0015633869746399986 -0.011838260580645472 0.02601992111900739 -0.03336429958883659 -0.006801618001923923 0.020054315721824093 0.006465713158549417 0.0357818131437134 -0.011092341042432645 0.0003372808913693578 0.005642737306152308 -0.0124920565256731 0.03528413651582909 0.031194653835461963 0.004212973077168244 0.02105895994189753 -0.027967886716859368 0.0009238181723355544 0.004548623480033396 -0.019657883614176554 0.034364855952615396 -0.028971622923252477 -0.0022553577868624462 -0.020181878431186667 -0.0454674679687878 -0.04173766807410019 -0.03333908995951123 0.0062639078519355 0.03158733334881106 0.00403346076393547 -0.019911283982835693 -0.008377185525782722 -0.009689061413094302 -0.01224935961158044 0.013460814375434366 0.017683905860246645 -0.02931154159873932 0.005750366603926849 -0.0088652928069936 -0.012415371086719583 0.01573036941732487 0.023577673615994048 0.01623246857657942 -0.020751409644337897 -0.019476567366934476 -0.0027838840479075594 -0.02240511079944495 
437 0.01929956256393768 -0.0178695329845623 -0.0060370812461132675 -0.00331862658904391 -0.027985089374062334 -0.009331737563645472 0.010681264948800777 0.024387163229856894 0.033535765484218195 0.016048607089781487 -0.02357253784172468 -0.01937576085942554 0.007221515923685895 0.03882902617034292 -0.025804630645036467 -0.003883498669416443 0.028513060043324937 -0.016864228730753533 -0.007684751402980922 -0.00908774424731838 -0.015590158681982127 0.03237880236114236 0.006793884197175546 0.00033917726519429184 0.006087929530405669 0.03877779439963998 -0.023411924122776134 0.018244151935493273 0.024419597973778517 -0.010622876505091462 -0.016702499595880858 0.006136819422957603 0.0015901517148351617 0.014593589603978835 0.02855461763229929 0.026731923940566674 0.0015528912093843894 0.027113391706176194 -0.008724418789763017 -0.010882193740861006 0.014931705158204448 -0.012230296589264313 0.0069646487447348965 -0.0005685637300977934 0.03605769021598828 0.010550441486972048 -0.017911542515622093 -0.02544403318505202 
488 0.04021344963079113 -0.044777555587937244 0.03797165804027186 0.04482704407289156 0.007876249862895576 -0.0074767457228354615 0.053198764613609964 -0.06557518588835758 -0.015576612760134967 0.015533194272792207 0.019150814167690475 -0.08036748440938862 -0.0041685470311308695 0.07067128842421448 0.013289565549085107 0.04920269842528833 -0.010710032971571392 -0.023774226920916786 -0.0021150315821235875 -0.030426885190436907 0.01908952902585331 0.03172541524999089 -0.015966151589469124 -0.0037292076257975765 -0.020801687000859118 0.05401560547512493 0.0039681562844345614 0.012424864978662352 0.05368215369777184 -0.014767818961497328 0.00393596157815621 -0.026571106768275843 -0.03704003260262021 -0.03176755159589334 0.044145088969882076 0.05032039508173774 -0.04610301502980768 0.03734169969941703 0.0005079614603602777 0.03991041053634912 -0.012284026117900351 -0.036943072351522006 0.048795073823398226 -0.06045291351685806 0.040114788020828254 0.03971386495232153 -0.15418144074670098 -0.09681884283856447 
808 -0.014333023848586863 -0.03171259324581408 -0.05219597861150708 -0.03226360330549162 0.012435021964351157 0.010812081793502912 0.008077414331489076 -0.00882306867228617 -0.035718073366636564 0.036383500662085004 0.009532279598681708 -0.012844607837753656 0.038398782227469376 -0.022954161269673635 0.029307660641444626 -0.032173205581131806 0.03907296879580956 0.05742691090110998 -0.024967906086830076 0.0032497886136119893 -0.01943843093961877 0.03020791340416234 0.011138538470404106 -0.0471264013471548 -0.02254796687532444 0.033048623756730094 0.0021607919894009314 0.002472278282259318 0.002286344290172278 0.000722985074603334 -0.011800918127727687 0.008971769205383841 -0.034319526961511124 -0.013301795003061528 -0.0013555247986899864 -0.00792907384925367 -0.012553093624807377 -0.02772245243138119 -0.014230271855002537 0.0003462393672731668 0.0012132527237040025 -0.021823270680530613 -0.0060656412467394024 0.05493493341160603 0.029472522580349898 0.004277410988410954 0.005221437171882073 -0.030679837683628048 
817 0.002033383996325948 0.002993435012298738 0.012105837732169581 -0.04954270965778773 0.03752275599507534 0.008130499293450444 0.007020026413379992 0.0060436775233591 0.031892578247978226 0.0017720453372205773 0.03320960410793377 -0.020817677210047788 0.017724432813335862 0.003868665233339233 0.01793958818919865 -0.020824186418940637 0.03360372092250537 0.03951568457951447 -0.03458810356079775 -0.05250824911449917 0.00196820056274688 -0.017052275524415916 -0.020046083916781046 -0.02995544613422142 -0.03499056480104218 -0.01029186684880925 -0.015995331694673955 -0.024992289395429183 0.017525360425232856 -0.028875445919086622 -0.012336133136382495 -0.00665587248720929 -0.05544105509513321 0.01037289011497492 0.0006155120780237703 0.028741861285348204 -0.04176768005771522 -0.03807528398650511 0.0031183809376566273 -0.00034684255431165765 -0.001617883095468564 -0.03209591419865397 0.01287777302572841 0.040824584689690045 0.013172014182472455 -0.028609284303946665 0.019348882296740345 -0.028724690434297567 
5 -0.001897737128554294 -0.007416076707806749 -0.00935580104214128 -0.016214588876971484 -0.012823864741301717 -0.01497610946785623 -0.002113656094756321 0.004385734121454983 -0.031005485658298425 -0.010080319708088993 -0.0022477798760923624 0.0021384782325875205 0.026242366016834662 0.007329737251733489 0.024933472685390885 0.03977128332034435 -0.014814405994530277 0.001009593815302731 -0.03492980798988316 0.00798505974363028 -0.010021840680375196 -0.0019107763859751786 -0.024046635715978322 -0.025113307017207997 0.005564018350079577 0.009282633379996897 -0.010636833093790678 -0.00619746354702506 0.012847912236634826 -0.0066754834131076335 -0.03148679167760949 0.004802662407412895 -0.014371630003906103 0.04022395169986793 0.006665164737559223 -0.0438382183228861 0.04092658693767632 -0.013988079010232453 0.011486718100002983 0.0014714261227461427 0.041449791911439555 -0.020685277339684036 -0.0036460183135144917 0.02117870650921595 -0.009030133035804237 -0.03389839224078653 0.00844928802898876 -0.024769379070393817 
36 0.04615285124083032 -0.0001518866739008255 -0.03823110460105971 -0.006022889032680986 -0.0019705667516984977 -0.00897936159808986 -0.03424057383092265 -0.009032693252795996 -0.058942148634662635 0.011912869657677086 0.0022979537922316155 -0.011682988053575203 0.011096697479359529 0.017144228128287812 0.014297549019531449 0.031557408905772785 -0.010255022915410627 0.018903617807725107 -0.0013236676264039068 0.01145098916302615 0.0281948187046811 -0.011679903335038053 -0.01733673782102124 0.020932177467593623 -0.006606128282359782 0.014619174180048706 -0.007366544737827006 -0.0400836644333789 -0.009040615653249316 -0.052028893646362755 -0.03902832014821219 -0.0017231504246634907 0.01913595415692069 0.05942598968188354 0.023677695797297307 -0.04668814708390928 0.023279242696859843 -0.0007096292715710269 -0.0009435474535112819 0.013531624988402418 0.03381574937309273 -0.03868810630237081 0.006657315914227798 0.00500804542353585 -0.01768874494748878 -0.04702218094847587 0.015709943341012368 -0.03915231154564561 
354 -0.014010875652305263 0.022593288467010544 0.0032424759538554515 0.015924248048753968 0.00331559789235641 -0.021440558918940863 -0.008796749858495677 0.01910901135102679 0.031892531493890916 -0.009006235927182764 -0.01628493022126495 -0.010949756338091041 -0.00894190806761257 0.0056433916080296485 0.0037229972984927566 0.01916402918063641 0.01234158415030804 -0.04138996155657452 -0.014946397298829817 0.0059237364986115815 -0.019992826528936372 0.030882186360863255 0.02376176280296689 -0.007578367195060766 -0.019105728689158136 -0.015369801587185481 -0.0027048090863370116 -0.005353278119914216 -0.02410454828312798 -0.0076763807718277614 -0.021307481492177743 -0.014801522479876254 -0.004040139381936427 -0.03274414199302636 -0.004283137243312495 -0.011345805552596113 -0.0011996429567367175 -0.0023146478614011513 -0.0012693486216235578 0.002970512029117726 -0.01525116724505084 0.03000336712771421 0.00036710096834192014 0.013558404120219407 0.02397324871286939 -0.03687958924515615 -0.013502291123240355 -0.02718052295121901 
392 -0.044474678644241684 0.006121584633599872 -0.008914467121959186 0.028309896044494964 -0.026456482439943828 0.002268310721056848 0.045764662511683395 -0.0011211526237646682 0.06862591959666837 -0.026399173870352514 -0.0271659704263859 -0.03633164748349756 -0.054855869007834665 0.02550087152843013 -0.05048311091915502 0.05631944752515566 0.022002306764957843 -0.0017500727226634533 -0.03620350266152604 -0.06253529628890818 0.0014574849241756436 0.026411388207556872 -0.05122612401615586 -0.011761140991654205 -0.013461356352057533 -0.010772268699143259 -0.019693182477480975 -0.03070383755850031 -0.0013039020726270546 -0.0643159108558816 -0.03990976053024477 -0.03205949629728983 0.02313578271618612 -0.012216219005227244 -0.03164120466923782 -0.02851984510143129 -0.037111081457866825 0.01321008076507524 -0.041751253000155614 0.01071702587594995 -0.024771343464311667 0.02449919704455164 -0.053744475316886635 0.01730041198860738 0.025210794631367696 -0.11002990551867749 -0.0010961935481469001 -0.07818076606220081 
407 -0.010978159245070587 0.03512930984423168 0.013742514890157504 0.008718226096319549 0.009751153381705568 -0.011912052863402845 -0.02427098284784294 0.030720311148228287 0.015871017189110333 -0.019027946397207892 -0.0033755129154575962 -0.016746117724745446 0.023774302762172645 0.023575905029345326 0.017330907759351984 0.0522582419605887 0.00856904439307597 -0.02728345940880749 0.00134674621141911 0.007722263911959357 -0.02707593445484971 0.031237823588613583 0.03684284200382417 -0.02043965109143226 -0.05852598486275294 -0.018053214231703647 0.024494605855461454 0.012709356939360308 0.04921432217937656 0.01199379527849984 0.028786886880151755 -0.004963340663672116 0.02817712715589513 0.045114006534050566 0.011979012625940384 0.052226947639632794 -0.002824312283370338 0.051202027196043096 -0.024047971712988506 -0.0004254055826669104 0.035925181829726455 0.03320388722019814 -0.026153916491254307 0.008758435398419211 0.0026754149625920496 -0.029470079889919926 -0.009424237624229484 -0.04180995410222704 
652 -0.024233906682920477 -0.0027140203376049667 0.04807408436333553 -0.01476969530869752 0.01666056780587217 -0.021451222469040358 -0.029566673550775007 0.020723537452611098 0.019835790236366963 -0.02906596158155793 0.01894187993600964 -0.0062950286431319976 0.0022391021330563543 0.01643516073004446 -0.01666513845549465 -0.0007460814490260184 0.0051724680474181835 -0.01694622548619068 -0.007823471298170317 0.011890303122930186 -0.04761955722763896 0.00862757621892599 0.027070795357695677 -0.00010211585480344382 0.02590170107234011 0.016109462764972365 0.015061918278926969 -0.01013555922272716 0.022907856199049 0.003348221170350289 -0.013918438072663632 -0.03503253791215385 0.00964895349639268 0.03873411139428201 0.03363179180319833 -0.003231169089494231 0.034391642160176886 0.037380565804425885 -0.06605350047972595 -0.009456491134964698 -0.017379621843916743 -0.009192181230676513 0.018685686548494375 0.010750706839859283 -0.01809347646696034 0.01507778603088835 0.0336806042132551 -0.04203623521197845 
464 -0.019054134821232128 0.017417561552174853 -0.01257549579504706 -0.019311958730813192 -0.008924420786851331 0.039876172120405326 0.007293858554350867 0.047230570183767806 0.005965282251809925 -0.002661311414244425 -0.0002901583025695103 -0.01232032189554453 -0.0014139642189143302 -0.05753245031516233 -0.04761643797118117 0.0057669477263887535 -0.02278765575693859 0.0519152603360987 -0.00409666394757726 -0.008212496112611678 -0.015452756671193349 0.0476757504837796 0.01448075320041952 -0.023260132402272326 -0.04198244554579519 -0.012967934066170519 0.029249287168039626 0.004394599055128191 -0.0211064917686316 -0.0017148137869353148 -0.008914726891102304 0.031239010486981477 -0.03584307808863421 -0.04236267058673856 0.02686079567754052 0.03872693000854686 -0.023131140886535288 0.03640195397040432 -0.0031042416036395092 -0.009538791606864013 -0.016868578536651326 -0.042309692477957565 0.0370829030710538 -0.011293150766747976 0.033808106548033956 0.021968826298554064 -0.05048969654434977 -0.04488539772470194 
975 0.0032925495046202563 -0.04032574282458771 -0.04204120372253 -0.03237265619782101 -0.011816608778936397 0.009296671745481357 0.05349454512139285 0.016120685513183807 -0.01200604956529006 0.015784665689495846 -0.02902858102334012 0.01819585116366229 0.010876301555923297 0.010052931612619938 -0.05105334386874414 0.006552617707290112 0.014105457574672336 0.020652427420718406 0.003942395666873333 -0.034471959808458685 0.022395330086935835 0.014260472959063046 0.013253689623008028 0.00421521496587365 -0.035880046306173606 0.014887302518738366 -0.027471275553477368 0.019133198298651448 -0.03580463085132251 -0.014335540558579057 0.028026015877851116 -0.0017639183945539567 -0.011012876837291314 0.0072333757570776916 -0.004489724075975875 0.05231578685852306 0.024948341299126705 0.0007662898787897519 -0.043407482176647604 -0.002637935214031592 0.0018274669068492479 -0.015377665789845377 -0.015709680869841387 -0.04224363217127499 0.0550661136755198 0.0273168231865548 -0.007330666503193534 -0.03164472122960449 
50 0.04916622154988556 0.04147154699235961 -0.01188867688025224 0.012982284142545437 0.02004639207850503 -0.02260572530065562 -0.0003412149987095413 0.0293715785901655 -0.01374603065320954 0.020552413179745432 0.032369923250326886 -0.015496782327508918 -0.006926430062876801 -0.003917250119164252 -0.012354202331977373 -0.001778919881225455 0.05127923221170753 0.041955915954424376 0.015199398386520064 0.03075083920109731 -0.014170861939231389 -0.04585600867549437 -0.036603350980986826 -0.008493438964196286 0.029819532701061132 -0.018875187036809786 0.02724075877521594 0.038748477963818834 0.04722523273949831 0.027382170292491327 -0.006775970349089961 -0.016342817392513552 -0.009038712698584571 -0.05849283455799188 -0.007222524515729197 -0.021501630392126832 0.01130238956025123 -0.017084997025633625 0.02668077473373686 -0.005074008884104322 0.004341064824115349 -0.013001517707728602 -0.017308741731172802 -0.03006094076172813 -0.027363609312346906 -0.033074275102702395 -0.0026100983028185137 -0.022894140856515578 
911 0.023029679248448485 0.009623407997658665 -0.017992805418195493 -0.013261171197239937 0.06854390931197932 -0.01655032565466116 -0.013103436966363728 0.009299226921704474 -0.02566555910488168 0.05102137606405325 0.02856156815973856 -0.004005853932533592 0.01284477039429458 0.007100941049544194 0.010801623956560731 0.03336529233783099 0.025847765238839575 0.029939059975011065 -0.025488140236378014 -0.007284359559608732 -0.02894936755243032 -0.02481340147604407 0.009777793177149934 0.010948377290050472 -0.007564953238026134 0.003695052586049406 0.005806294173003498 0.010117109284552122 -0.0037668953676240785 -0.0019752616056775887 -0.0018024885408397106 -0.010398268203694808 0.003205770682024415 -0.03241131174225905 -0.00922580918049568 -0.0021746772182915514 0.05015952663826557 0.0343703562776873 0.07074356410767918 -0.03550654483904282 0.024647986461935313 0.033811212936772785 0.0001520465790107475 0.028134407274181716 -0.016986837080175936 -0.004428690850648462 -0.027177758401222947 -0.02997562511887183 
892 0.03248222996904445 -0.0038611624005787416 0.008461019826579907 -0.0035679701757317744 0.007321716899411625 -0.009889153877140006 0.003894547251318427 0.016521218508735933 -0.009901919081137217 -0.03250122655552869 0.033289524346851236 -0.030316276645735215 0.0006753941696285326 -0.012676776807173627 -0.01758183554307442 -0.000659722776883233 -0.020006635993059917 0.002686048197083376 -0.027230094085217288 0.01376495027678076 -0.020714818526860374 0.018759641454195772 -0.001635730527361115 -0.004013452424924651 -0.019887227671491665 0.013892290269288135 -0.019536468000090474 -0.040808758632209 -0.0101036867726835 0.0003611691936129065 0.003073436609351394 -0.009786374831117935 0.040343015245353 -0.02754396333978801 -0.00934883471910483 0.004786052841405861 0.0784188834262793 0.03971954842389423 0.07649530096989796 -0.053539044710791954 0.020484553283899053 0.0711404404491174 0.032458153907727064 0.022905169623755977 -0.014948566502049263 0.017823688293989483 -0.013399967845673223 -0.05240844336368391 
900 -0.0018871485281315155 0.028227747114810582 0.00860760450845459 0.009503985263790857 -0.0294652970850226 -0.035148129191240635 0.006388456634217634 0.06160819520410568 0.020311754240156903 -0.021927740545332888 -0.010099067672102483 0.04815286319536129 0.005050398158411677 0.0005920508332766492 0.030557915020913557 0.049531861098306526 -0.0026907913187548572 -0.044902954467214706 -0.01695193026503104 -0.006077072176009917 -0.07265326340980753 -0.018561973638558354 0.059202405814712256 -0.005863086891841943 -0.03644653327804761 0.029136988114617547 0.00791778271070351 0.008766540965325535 -0.048499152439614814 0.011211989890263794 -0.006270782949473816 -0.048473854683508746 0.054818141414662264 -0.020311459079132985 0.01561194092243969 -0.020619022830698414 0.023580109321638038 -0.0016918540268947384 0.06432702687592394 -0.014516396546346904 -0.020517094742047808 0.028106232239354934 -0.001524153068580456 0.014443928918112109 0.019618624024908455 0.02252949614496603 -0.009541001089827271 -0.025300438071417446 
147 -0.020492876765888412 0.014812083835918794 -0.06028235089774826 -0.013813427985520533 0.006970633268675479 -0.008857615067098049 -0.05495489883451978 0.0039385313313795075 -0.013508159866307164 -0.015133646592414514 0.015079182343918066 0.03765844755364635 -0.0020201837641072354 0.008887418037409544 0.0075664275496533945 0.020379737365099165 -0.007752616132416421 -0.0017646592424588128 0.029745360475322835 -0.006194873657181622 0.01904821653188607 0.003398289872149961 -0.00687416408723047 0.00872270629383993 -0.036187849645735806 -0.014039928984362586 -0.012665028217559523 -0.008298162652070774 0.006457442176587128 0.007637922685557231 -0.047847264703740525 0.05804992664663658 0.015108784193430199 0.028361304041867336 0.07497861874528614 -0.044325740772340735 -0.016795046173562547 0.020700906518267666 0.01763935017936437 -0.016798806059054018 -0.01625689484901659 -0.01177651907400035 -0.0246390798778253 -0.0036177521018206206 -0.0018302291192488892 -0.025825485324681888 -0.0033812955925516088 -0.024959964360248412 
205 0.017629995679591358 0.00795612559203287 -0.04117755450030396 0.04055104460493481 0.04555586287987643 0.01135908063091072 -0.03486003230807976 0.002822409217533129 -0.01830248516098176 -0.00013134507877119413 0.011684401797955025 -0.02433513097138987 -0.01823120014571977 0.012900224294481165 -0.012398416788343272 -0.02027944030145805 -0.008937885063720846 -0.013925044183894293 -0.016890246185659732 0.023338763150456025 -0.0007511546776168741 -0.0662680194845556 0.0031109452737524772 0.025250114699471245 -0.00914876744875561 0.04362716017671052 -0.010254761299651399 -0.031617710274284686 0.03404390011850598 -0.0005923332069094301 -0.014461981678575452 0.02499338324018597 -0.01758595647666499 -0.003592396085633539 0.019540138170211316 -0.03821930324416491 -0.034499674319188094 -0.04158004570704361 0.01177508760467901 -0.056405088833573515 -0.036660745686993935 -0.008921311586516446 -0.06870295743849694 -0.015463739277349326 -0.021491648922412458 -0.008868475312740818 -0.01837201846621679 -0.0396403791390635 
701 0.04185459880852754 -0.0017426984823330862 -0.01908393382488829 -0.03308623740625941 0.033398320414507104 -0.0024160349001011647 -0.06048698251358086 0.027545733669913152 0.006472171351914827 0.039951979300593694 0.01635382279500798 -0.015876634250205468 -0.024594025972770637 0.055475257885493214 -0.03476821166854932 -0.03631415899487243 0.01261999504584678 -0.0036293787684059248 0.011373379649516145 0.010504730752642464 -0.02688671519317065 0.01878130015171472 -0.00487448758033286 -0.006217047971364215 0.011767826539340482 0.01999276408071973 -0.047380940793954496 -0.014133892483287985 0.01601571568332081 -0.04538996356370488 0.004204943552811971 0.0215995070344873 -0.0008158384441295056 0.02203800448583442 0.004210954531361698 -0.004763052620878603 0.008691938367641478 0.03909108528241247 0.031121297449178683 0.020160027162511238 -0.04518570713596466 -0.03180139375222667 0.011705500162850326 -0.008732939781529718 0.02020151744444701 -0.01869510751749613 0.04022783492019058 -0.023424727328269532 
748 0.011808647665735472 0.017618476400218512 0.02095989753846107 -0.03631509021051037 -0.014443769740159772 0.01688517609184665 0.016725885477427715 0.0042745030402755865 0.013015874235941234 0.02882434128348372 -0.0009749974197126157 -0.06533863453410195 -0.02686566907485031 0.00033600956005566565 -0.025236446332677073 -0.005111023401458062 -0.008489330228082424 0.004057980260475771 0.034297448809752336 0.010909290662339085 0.013639057442580078 0.0017354490482071176 0.017854311815251458 -0.028451791346386607 -0.02902362350367271 -0.010326405229130092 -0.040212589750209166 -0.011940564069814981 -0.03182592940155366 0.0002703831344493532 0.02577734944035334 0.01911071037361218 0.004279891804194506 0.019625103916191797 0.025888780968435467 0.04878740902122903 -0.00711565148771961 0.04724513715805384 0.09631736882783158 0.06257288193332618 -0.13183488683242334 -0.051219620948882154 0.0202076610491344 0.03012315282244996 0.08336395772174984 -0.032597905294296514 0.08258289251724703 -0.07570491110986108 
289 -0.038869868333487836 0.022837643192464285 -0.014745634703592575 -0.01042357498253414 -0.01611723417317608 0.005450395437382133 -0.02076530023578487 0.0088178487795988 -0.0362792663638524 -0.0022324475119879965 -0.006738132336290238 0.015299371168558238 -0.003367916418340801 0.016094779704509395 -0.002270657711679613 -0.0415455425345303 0.010004185026707668 -0.00831647457096115 0.003379189497154633 0.022338530090076976 -0.036267436745089955 0.02579000977634144 -0.002969502363119332 -0.007544310273187154 -0.035759138824451746 -0.017746866902074734 -0.022279406964278287 0.022822977595142662 -0.02048856228449452 0.0005667780545710443 0.008802361311578352 0.010459011307274436 -0.05267822059453875 0.0025595915461034497 -0.010174449012619845 -0.027284815008006977 -0.03358098510547832 -0.002834331757539392 0.011419003969747732 0.07814912703995859 -0.023076234169950798 0.023557535997016377 -0.004365223891739687 0.01704078926721767 -0.04618572565702878 0.04915751624648286 -0.022872764729710223 -0.05630214345298813 
390 0.03465714594681324 -0.020727024419067045 0.04426350108892292 0.05380172340030657 0.02300260259424782 0.03462972928851969 -0.005214300435493882 0.02775734625116941 0.0722534016454167 -0.05159586567425873 -0.010221602801011325 0.027616246238508325 -0.0070200919356373645 -0.03426723149868033 -0.06292569230694053 0.001534069182600733 0.03789820651299525 -0.0035983965812130714 0.010243906135360071 0.011104618608312234 -0.013861693194738494 0.07796754137413842 -0.015256400556724696 0.0010677669159483976 -0.08018975610973182 -0.06695204863630888 -0.008955700541667659 0.027687675375450308 -0.02695891042139693 0.034544335112915145 0.05040608325090808 -0.010744628745503181 -0.00031862804879732274 0.012816304395260677 -0.0027992093557185974 -0.0153180599172408 -0.03075216261736415 0.034318260901928806 -0.05166810470377484 0.014832267478790033 -0.00895312290499332 0.06377022109956824 -0.053600595042078425 0.016240332024037293 0.0313537267249447 -0.09467630831256722 -0.0351169248103082 -0.08707983613864512 
188 -0.03567767627058476 -0.011516356495075023 -0.007227587581558746 0.028879577392793798 0.023724266296173472 0.03855466301254338 -0.058532490335351184 0.007872270334645095 0.047133498906635 0.0004690830927462545 -0.027443630590961776 -0.009438748131888127 0.08476408870171952 0.0028982407068958503 -0.016691828022504865 0.0444851457951243 -0.011041274574133004 0.000977295734248854 0.03614694282138614 0.005016378410819417 -0.0022571865741187534 -0.028744776304524808 0.03565565178416354 0.019522092754217634 -0.015644483677498284 -0.02146893199960362 -0.01803960288570319 0.007401959687076001 0.011860694712488533 -0.00906876405386809 -0.012007536893342127 -0.051541949257135504 -0.029257391018537332 0.016916376656473556 0.042307999348386506 0.013943600516326113 -0.001999691225420154 -0.02466599146285815 0.013192973418569358 -0.018986968584961923 -0.02254543640942285 -0.005281392684967652 -0.03296242213345409 0.008068588238256711 -0.01050830619464235 -0.0167383030593482 0.008441578971279319 -0.02625456267431727 
650 -0.05368028640062696 -0.024379329444242592 0.02891141827799836 0.039228939306338764 0.018407035703264588 0.013837148328165445 -0.048815988275784185 -0.015339044487556396 0.028211452069080493 0.01329282667568909 -0.006789973765118127 -0.02888345121657093 0.027888144833921272 -0.008423323572614737 -0.003923101164418795 0.02410216086250935 0.012519073100445682 0.013717188138947976 0.02546381320691347 -0.03558636174087053 -0.033061715100912596 -0.017875042560677408 -0.005825825762978549 -0.027006330942698033 -0.022893083050182575 -0.05193241559277079 -0.008012419167375903 0.006148806722562891 0.0032901020168157246 -0.036047119559969205 0.028322010713744444 -0.09238191745049208 -0.043829230527948924 0.036786220519647375 0.009823031953995007 -0.0006738612938493909 0.012708779146754017 0.016129541915756506 -0.03723973329962473 -0.02156230508506527 -0.02052641741220312 -0.0018707944114016283 0.0026259819026925864 0.009494114860832143 -0.015057963165626725 -0.009909231870097021 0.019501624893191856 -0.02233002615277432 
192 -0.025487016920307505 -0.0026541859482164627 -0.035053043685549574 0.02450999130812118 -0.008629502102159396 -0.04754811733133871 -0.016824730646646743 -0.006988976989508276 -0.0004469246464409519 0.013827542776559022 -0.03353322017274376 -0.013412280812204865 0.041793467380728436 -0.06316842649863662 -0.04448528588820722 0.0068888790645556626 -0.0066911536689751965 -0.03581828727941947 0.005947858334051046 -0.011133804777239733 0.027662631560540715 0.034266808147345854 -0.008817894399874479 0.011473758270502572 0.0019666296194369762 -0.022059354720014742 -0.014954084606609911 0.008446646516359282 -0.018133763813663478 -0.0022561107100331785 0.023589414508731265 0.048122820810500976 0.016277579468612073 0.00655282895373623 0.049023581778992624 0.07390335813965555 -0.009714807300250506 -0.0027597092376043762 -0.008807619107871652 -0.04699563772415565 -0.023031300721247254 -0.008234414745056231 -0.019225191400597804 0.037910626992092626 -0.028752614934401195 0.0009491627209993373 0.02341981686843085 -0.040309543350543486 
830 -0.024722696345254175 0.010880021705724763 -0.0606546762793333 -0.029464916400109193 0.005133446296046735 -0.011864782677830045 0.00476362681308182 -0.024444663419934672 -0.008377394325702857 0.03820069558383582 0.01883719283561952 -0.008005391409227127 0.007151966104400908 -0.009049761090358138 -0.03709742129138246 -0.02554402344254307 0.015523471158659933 0.005691191478871774 -0.014914070393982534 0.010770506709080344 -0.0073507774816344105 -0.00254963202031511 0.04026000394666289 0.0065536979063267565 0.029258150161027667 0.045238848995848215 -0.0038765077573834888 -0.022289871136567108 0.007668033474469565 0.01779285934865623 0.05339895989699766 0.055134405479244614 -0.02118474937658869 -0.0032322528880418242 0.0213914148957425 0.03693353779002688 0.03771080718816189 -0.04606752890196246 -0.03406679418445435 -0.026501896972287546 -0.007140179999744404 0.0577643575533016 0.046082109908551244 0.00152139985559675 0.030034382239809868 -0.02019628265744851 -0.007829203489654947 -0.03863911491665579 
124 0.025239390331075723 0.002050413522708714 -0.04728477302985506 -0.010467544441234742 0.026813850370778346 0.0034682622993833373 -0.05823465615430901 -0.027288514705949993 0.018054823161767826 0.008889492450269204 -0.013280753132547254 -0.04110311635844888 -0.037353938876370195 -5.059028008205037e-05 0.011267963443130127 0.018802799768497844 -0.02295981067991429 0.008870912890441333 0.03553213196705448 0.013906602743457038 -0.014810315545656545 0.014861960330839242 0.013043693658161347 0.0858149197239694 -0.027103458973549363 0.007423589446876582 -0.01590138521903412 -0.02399291515544895 -0.003270055780451567 -0.040844209176483674 -0.006730880288721622 -0.016273242483042287 0.020918351567499948 0.0206176078591136 -0.022607104789677538 -0.04747340951715441 -0.0030386852338684486 -0.012899451579463265 -0.02420798689470505 -0.05277163417098516 -0.03988430895890878 0.000857533971896806 -0.025002917580868356 -0.004569468911139269 -0.0073656261412821 0.011780190181575643 -0.010616071525254322 -0.031182309512660718 
604 0.013335503924446148 0.00571834535815418 0.03224605239313516 0.0080263830947717 -0.023685789246921735 -0.051513059075264094 -0.02363654428132253 -0.02016081700928856 -0.042070349052653555 -0.012896016254232026 -0.050609307395105406 -0.0006440534256403731 -0.04125493949611072 -0.023038568713739667 0.06768807095341897 0.04468566389559928 -0.015936014879159587 -0.0015028733068336042 -0.029816833421067612 -0.025300776956988305 0.02502779634991103 0.030552051890713725 -0.011554068357000348 0.03279077924887735 0.003644872871607569 -0.051317192478511124 0.018749203462917793 0.029228363757541963 0.00012183008134292719 0.030954985364002874 0.020490369772833732 0.013964003998207394 0.025180977350493555 -0.011232723823581042 0.024875114860995085 -0.033228299105482445 -0.07340973220776456 0.010707915721831492 -0.0006464403910148643 -0.030904038199823458 0.01964412921818706 0.008770038667276759 0.07099617267094281 -0.05366200289806303 -0.030039178558111865 -0.004226569718257784 0.03720188678108497 -0.06975307517887794 
202 -0.024830286421755565 -0.013587055353607541 -0.052369945823832455 -0.013933271533839334 -0.015113499703204837 0.01706008199804079 -0.04751559398808167 -0.010782108490474156 0.021053513933889625 -0.006760580871384552 -0.03270073952711879 -0.08331940729322825 0.02515456310416854 0.008591018324166668 -0.01590583462993234 0.030188562232092972 -0.01799682892469199 0.008649264261275151 0.015875901884645924 0.008400960619406437 -0.013174512411178611 -0.023062171022548043 0.00851851371707517 0.03632033613781927 0.0004532559495243907 0.015539202826237521 0.010017376041568713 -0.01656472041084803 0.01466927602845662 -0.0442030877889916 -0.013617931623214612 0.00305935826999399 0.009350142509693004 0.007419561839208948 0.010808919053879608 -0.054204468449575556 -0.01595525483396669 -0.04937027744691101 -0.0052551831985227825 -0.0443475017533827 -0.01655410970150331 0.0020935151388496672 -0.02390512666593518 0.0014508114438891416 0.006163248947454747 -0.027707708975256512 -0.009909625657241856 -0.03520916186370465 
822 -0.02070041317694643 -0.014746313589098694 -0.024200934371781214 -0.01275930378784792 -0.008318518489753624 -0.01655716097662733 0.007452034570844382 -0.023054580992437942 -0.01067556513174647 0.02748226442287571 -0.005184640452083348 -0.03684579451016989 -0.012738409692465749 0.018874966902141722 0.005394963519169185 -0.016598523747561298 -0.006547960187293998 -0.012715820980137762 -0.00652659378369634 -0.0033362232910991232 -0.03220016278029571 0.006425641912441468 0.02666738044323948 0.036298746388139125 0.013491000051467797 -0.035230702461008664 0.040514224260735435 -0.019033679330780037 -0.00522514284268488 0.0004389142210021844 0.016317483030725655 -0.021926566506671918 0.040634578143735764 -0.012312558677040545 0.001627740100065394 -0.011963388006605603 -0.049612575004112744 -0.02186668371846788 -0.00657620093632634 -0.020026881623302604 0.04276814310964786 -0.019116853580281753 0.01243126646544595 0.0598220464074918 0.013964513727204064 0.015503667043382194 0.016250931094644407 -0.029162629741158977 
76 0.04645333990077645 -0.04529588387060322 0.017597882310991537 -0.051446826394263956 -0.011441713391860451 -0.038959162239860096 -0.01678913378499445 -0.022966605913629628 -0.006118257214819818 -0.012521022134640139 -0.00020014440840960323 0.04129698319280917 0.020139554278274067 -0.017374355485388973 -0.017125866216689867 0.028971197663575508 -0.05186082500032999 -0.0023248398077200176 -0.034666788315507395 -0.04070017419854098 0.013691276454453125 0.012235610954509858 -0.04601458109232066 -0.03809667539199247 0.02609027674690386 0.023723972483519744 -0.01058493931079603 0.028238483642008223 -0.030129936513574877 0.005949072664957826 -0.02711670290858912 -0.03665821784840104 0.013113932760064 -0.010972874000360728 0.010652705623547329 0.02123372409139445 0.047997049502652156 -0.03435283184620846 0.007491221126576588 0.01087149365227074 0.01852205426732416 -0.017283148934425743 -0.017009043688388813 -0.023215482268301474 -0.04117799257945936 -0.013542178118101758 0.018275088466281137 -0.031684734846891174 
339 0.008389541866138928 0.010845532827713354 0.005890948354988296 -0.01829203450183463 -0.001684464553594184 0.0044674481736164335 0.028465958891614504 -0.014155911511020613 0.027215022619457952 0.0015512884619153446 0.019627603276245614 -0.02157235598501101 -0.01846564822350277 -0.006292938828742995 0.008396722212671496 0.014532355094374224 -0.011582085592406218 -0.026083205588966398 -0.009046884093993056 0.011089719681209698 0.006288057451907129 0.014700947189457084 0.0071179003537838615 -0.038262722558460804 -0.04216642952713294 -0.03500673499352445 -0.012501100425984473 -0.03601316422287139 0.023705756786369134 -0.016631382781156143 -0.010177921282527555 0.01650836602474923 0.0391312545315082 -0.04491731650793524 -0.02882172196668607 0.0021226493575661064 0.01593549543903213 0.017832967595942904 -0.004397327407212604 0.003666085491985513 0.01628879915433296 0.01367477303651379 -0.010313364599572262 0.005059713285897541 0.0004141936832394883 -0.03253794145173054 0.016460194185563402 -0.02606672445426434 
391 0.008509030505948943 -0.0419649027546792 0.033561418609722844 -0.01128150753476139 0.027239750984836143 -0.0021225612309875167 0.036625327803075675 -0.02771198655731399 -0.02266955787085191 -0.0071842968234675 0.04310130545921311 0.017909562089568624 -0.03677594788408841 -0.055875537940809746 0.0007018657474317346 0.024404447142535163 0.0511801752505321 -0.016070720122250175 0.0735286791999502 -0.01789380612182768 -0.0006968943600999366 -0.007362911139500297 -0.03919288284234521 -0.012085351739821788 -0.05657104104031005 -0.01623266232926264 -0.041306690360204894 0.009406472035568292 -0.042420099970584366 -0.023189229280077276 -0.033783341286038736 0.06520418851303612 0.07994040031836137 0.02919052806153508 -0.027091665168040978 -0.0589347137199612 -0.0216480943578783 0.002806242274647838 -0.04277107824618298 0.04120492960467661 0.0033677348306686483 0.04848842450636676 -0.02962425400645603 -0.026823267229748756 0.061966638870447524 -0.11119279942596069 0.003860077814239063 -0.0859176382152781 
288 -0.008823242576179832 0.026640922058066542 0.024627228031264436 -0.008488367314446011 0.004971106575834328 0.016879658982763324 -0.014528094336390265 -0.012080361617928071 0.04040560483866424 -0.011969152226969912 0.0053054300279279975 -0.05054154525780391 0.010554637404415531 -0.027269910541289813 -0.017507423594526065 -0.0027958484722136545 0.014512578623042283 -0.015092368784391083 -0.003482278696292096 0.0006328101345607324 0.004915274114297444 -0.045413941078066504 -0.02281498853974006 -0.0218604386895944 0.04046830269467739 0.0010930206541622807 -0.010271913148923987 -0.0414018524978032 -0.01820524427118476 0.03250153870588372 0.005329980440425354 0.00971612868771687 0.0073079130250473445 0.02043011701334206 -0.009875862706471651 -0.015571463643606847 -0.02771901908231011 0.005953511406709975 0.01871735953524074 0.07531148354186373 -0.01751859413453096 0.02803368898181602 -0.018993523828585455 0.0015976924346749334 -0.029158135070006787 0.04832516366369741 -0.0038298631090682945 -0.03257998905698769 
324 0.00751158764722721 -0.005957950467791822 0.010741576707542775 0.015329038606218145 0.04663355279441623 0.00420412260464423 -0.014070737320878572 -0.0024252748260668974 -0.015397177082894302 -0.038757487333555454 0.00020990811676533324 -0.018678558363042334 0.025572252259370615 0.02200345151486053 -0.047005345703253515 0.017016561419318857 -0.05989412155069855 0.004564219846135337 -0.06684326361139202 -0.01633852573697181 0.004296640033844888 0.0016942836013846513 -0.0415687250174508 -0.004970261932245622 0.04312368640156617 -0.008169219296241193 -0.03753242486011011 -0.010677289956568236 -0.022151740880871282 -0.01723030703373559 -0.024445222037733406 0.05635522401292251 -0.00202415615744089 -0.026750466757381682 -0.039985867706717367 -0.01589652105643009 0.005067763570416616 -0.011281277462372702 0.0020522287786805937 0.030458899973920192 -0.0074134159162026515 0.0018356067095841452 -0.026112731413758864 0.0313343198462637 -0.04220330210961152 0.04766502494461702 0.02491615021327794 -0.03162991484891341 
699 -0.03379185175386432 -0.014953307269397172 0.00046187180605666855 -0.029316767195012836 -0.032726023400686734 -0.008885157750676121 0.028136539658474194 -0.031031705672879623 -0.0018757349160692573 0.009353376952837203 0.011208975521649171 -0.04075094404916431 0.02251374097771741 -0.027765015355213966 -0.017896875858981184 0.0016906022256601614 0.008096158460314043 -0.011581056956227676 0.008850909820578593 0.020856243488768095 0.010953238870393768 -0.012806040806257706 0.03860343013839862 -0.017212641944948984 0.021630345193864958 -0.05928774631365374 -0.001579483915768301 0.008293246026626861 -0.012417688052115097 0.004042606785611298 -0.007174259736875849 -0.013232795802405977 -0.0065730726685118614 0.014167555199955358 -0.0012472308121412067 0.023509391416697008 -0.010905490994487671 0.04189527340234227 0.037868768136244346 0.03181108059798649 -0.07308318257851917 -0.010806297238915819 0.004571229034669027 -0.018679389600809476 -0.001796164654587503 -0.007127782585367729 0.059677288937518495 -0.03513195957616594 
743 -0.0005412768621342821 -0.02593726318406701 0.0029418985973490084 -0.003466800987029344 -0.032950933024812286 -0.02439726851962559 -0.023309353007016014 -0.030199471031717096 -0.03443620300678853 -0.00656253271271193 0.049054886150861315 0.021981041054966642 -0.0414580936896644 -0.010426666363154672 0.026991753774105728 -0.029025651167927977 0.010326619829040333 0.02556152348519642 -0.015026367462184496 0.033862403478945965 -0.01350862311827129 0.006303316625146923 -0.00017873835193950066 0.033462826673631985 0.03216623598860222 -0.05349328300745956 -0.009358729326159798 0.048458302875589006 0.013334943934276413 0.01342567618495675 0.0445561546074308 0.008362721200715423 -0.014570651430532388 -0.017466883382772833 0.003949555501577668 -0.024007303151670767 0.006365270435117412 0.007831286838554581 0.054742049513350224 0.0434175620299412 -0.09614307401064533 -0.019508574947878596 0.020572838991704145 0.004183971961670803 0.03934635265180845 -0.022392748265921022 0.03812478504817265 -0.06025983320136795 
222 0.009335945379069482 -0.0013097847724048053 0.028385341098748577 -0.009131620513954539 -0.032015636745097484 -0.017821930293764655 -0.003646642528618483 0.002191959055189847 -0.02868272968505776 0.006499991752167144 -0.00440678771790313 -0.031368192638300485 0.036201769945300825 -0.01621014429958476 0.007860003265500317 -0.03256774118370589 -0.026484133028357573 -0.028246476045041522 -0.0016466930728219308 -0.00015686010292139738 0.004912565470704956 0.004870159785969299 -0.01091870608012513 -0.03998117680105108 -0.05065307651661028 0.002555622152447072 0.010695915846088784 -0.02728761732814447 0.04605064500406677 -0.014326100823121595 0.013915948899938477 0.013827443048486078 0.07695220173330226 0.014280706617818238 -0.015356034842311862 -0.0029728130885745443 -0.035722634278763085 -0.03650918094725226 0.0043586057043669794 -0.07375762438731165 -0.02948946089173487 0.018577872094179094 -0.10474364457169612 0.001575477169129672 -0.030763825724163116 0.007606065672181199 -0.022411200592347087 -0.049296024269096066 
476 -0.031316179429329995 0.014893300737640782 0.029300635976605077 0.0041857528083935865 -0.04552130138947983 -0.025381015821895662 -0.012189933014787874 0.014188624585792606 0.0017325318159067096 -0.018560022041827343 -0.0036204148656412563 -0.011242463283213877 0.021392213005433564 0.003764845192429948 -0.007192646322155064 0.013695249859452996 0.03429574812343584 -0.03156923703746785 -0.012199277280711174 0.020683781717612457 0.0009338191122559985 0.02175946151261315 0.014177838196043194 -0.028148479540241945 0.021922122360313087 0.02155629123684686 -0.009568902314928518 -0.0011070944946985491 0.017755322709521223 -0.029539390038452292 0.005458168771662391 -0.005516163824388891 0.05532487514593793 -0.007974301369762222 0.009168481229379272 0.026851523691054206 -0.0030169089826099973 0.004742515208175972 0.013755421848430283 -0.018804219396392423 0.008680345573032074 -0.003920198264207474 -0.009119009412492135 0.0024053396132828132 0.0019621987647558473 -0.007623636089597476 -0.03566140065097956 -0.022398589511343832 
632 -0.042965207257074506 0.005130630806850989 -0.03516953094695332 0.018139387945353004 0.02701946782061496 0.012199131875443461 -0.015705578913975976 -0.040605862027475584 0.017567246678005802 0.028035401341757683 0.03128707670895048 0.039159573001045486 -0.036377204112354795 -0.0514058701678784 0.030547843813054056 0.03388578572123751 -0.010165957974620714 0.022866182483997882 -0.00204714866623193 0.023022733193362056 -0.03447297451854083 -0.013906216395292928 0.04154609107771415 0.04321823335968908 0.012081223728915307 -0.005284405797360167 -0.01411705580175721 -0.003913893419966619 -0.050584961725684524 0.007935659961815436 0.03535210969879688 -0.10467311680734277 0.03672860798320819 0.017744954085872896 -0.010788050531970421 0.0009169163055462303 0.05914199004913737 0.08713469663628282 -0.11533775154862397 -0.03656514217599273 -0.049011059164076186 -0.060963612299136244 -0.02112220629120088 0.03448948745895564 -0.004881791339639208 0.06502255043850587 0.05184247744813601 -0.07706028449669415 
657 0.03310304568454211 -0.008287086458523867 -0.012724223591590257 0.012825645144847464 -0.006637359668595144 -0.026698196558526233 -0.004318948383555407 -0.033681822691848926 -0.03964040276707011 0.0315632681619289 -0.026029062020240686 -0.0030807723072186592 0.02914102562511811 0.008722666838622599 0.06539087993614716 0.016900613986133656 0.0673809418623602 0.04124794711350298 -0.00521325093146765 0.03168078599269254 0.009446829281561125 0.00946727900354543 -0.02201974911205429 -0.0037094377776570406 -0.0005358324645366643 0.02969859231691603 -0.012322494751400202 0.013967847505506208 -0.01925720346791375 0.02847944624988655 -0.059954112509658354 -0.008167547095581696 0.0022002510936572663 -0.013806305995564953 -0.021555631516419982 -0.003125020372850449 0.0073556731096668555 0.010747999956723006 -0.06143332357217328 -0.02219323425954254 -0.01623397529078518 -0.02471468433681184 0.00844949516470825 0.05930827845382376 0.023227897019258523 0.02265631578874449 0.021731513708025747 -0.041127347857658085 
599 0.006266606927198344 0.004201238648794457 0.007639653734081611 -0.02900645302554599 -0.03580433369818885 -0.02354624693651126 -0.009675727128206241 -0.00493924619292183 -0.008718226054354267 -0.016480029992521832 -0.0029526293820970975 -0.025521804948208316 0.05941809879168628 -0.006472666893210837 0.033879510024381165 0.020968150332037912 0.028554567050837875 0.0026232788996387343 -0.004857852943271764 0.023896646442237712 0.02417858152849537 -0.018543457820174435 0.029304653949763095 0.0064219543590003396 0.021420961260009586 -0.024106235718581115 -0.008543737780381635 0.03824090668893064 -0.0064765532777659035 0.040245294798093655 -0.04231111349861923 0.012322702670163834 -0.04866488442626846 -0.07505232472386801 -0.006223000167276814 -0.0221625628807882 -0.06545731190171458 0.019405030192694833 -0.003000067330533985 -0.051214688332598395 -0.0012876721645192547 0.014749963600655565 0.013286946846336845 -0.0747692196156295 -0.03715196983048888 0.004536239194453421 0.06691849912730875 -0.06571009037158707 
449 0.006135170609690741 -0.02508232387211334 0.03423228305848309 -0.010713801026865116 -0.000435647170204701 0.0016343509490558486 0.015081352154134734 -0.018173961163008266 -0.011248037113679079 0.011974166927355845 0.02228438205791246 0.021858860732350077 0.015200542826723952 0.015930658773312283 -0.01168764147110118 -0.012316067839089635 -0.009606924219551075 -0.03965816690884252 -0.027717745357087136 0.025598422810067686 0.02194152683424578 0.006187240589010675 -0.01913718648855514 -0.006146613386251084 0.002206241844657679 -0.004543009170862582 -0.006623415364017866 -0.008727140238501121 0.010758416457506576 -0.030461202483189495 -0.027164906226054088 -0.019889627718686197 -0.02200696623153133 0.02922311567081175 0.018342544754052587 0.01574308073791774 0.01832088654827312 0.012954986054007194 0.02423942543268217 -0.012798713626917035 0.011110687170589438 0.009021903229335786 0.008695565302672363 -0.035937605297437364 0.01698629171598484 0.01623440615380823 -0.04198582038049688 -0.026010177363421445 
890 0.012686251844394708 -0.002279961036311258 -0.026294810944341086 0.009129299571975724 -0.048426211619064866 -0.0029974432033104946 -0.00029003375515944884 -0.06282898788286223 0.00479285058820365 -0.01870831859929361 0.042526574872493485 0.02732764828656067 -0.003893864728367081 0.044556277184464026 -0.04341926491159875 -0.028225348910172535 -0.010229360762003398 -0.03409480044372924 -0.046630814929297014 0.04533966149228872 0.03363541028080415 0.0230724629943616 0.030551788666569348 -0.02915846213980397 -0.03518644521127637 0.005852030745582905 -0.011573086626622623 0.013381019974036923 -0.004389391323758856 0.0106446018881343 0.0006668478856929388 -0.016557729440198808 0.006814652139732859 0.025858541464385567 0.0024130098088784974 -0.009551728413799067 0.03970062122821384 0.013167204939603572 0.04165794917290116 -0.05782588045673315 0.027450430127758337 0.023358764377416328 0.004468412301172956 0.005671559818172232 -0.00905745148933406 0.01022709499993201 -0.004707191267164622 -0.02693443605180254 
214 0.019273585396770557 1.8733342500951586e-05 0.013207115320525646 0.010798344973757331 -0.012973409466309815 0.009749293168801552 0.0010358205581599354 -0.01015197123156992 0.02446845093351474 -0.013432044697925543 0.03379273487291447 -0.0446732858016985 -0.0045370910732737335 0.0035787145823060057 0.0405519637923274 -0.01872576123621186 0.014111192470578557 0.001976100429796846 0.0014799725235619243 0.02502330313491036 -0.007791158640215956 -0.021741886149820783 -0.02684401351991324 0.012947229958933553 0.029138737138246853 -0.02580927708497229 0.02182377564952346 0.03315901958920284 -0.0031816871828618185 0.003252402125323302 0.03265186831870959 0.00015022814474286757 -0.033240684163742575 -0.01399396794675501 -0.008063084969620537 0.0013492421321965055 -0.009578428874572715 -0.008486325189726808 0.028080855336561784 -0.0376928445324725 -0.016263105632874305 0.0011098774835125221 -0.00836418063880481 0.0011684557359496713 -0.014486744591954974 -0.005305947581649653 0.01701761436266748 -0.022393751817061828 
568 -0.018551989684051532 0.014518166033077082 0.01431473114301257 -0.0026719046989807146 -0.01053401593031827 -0.015553204616852973 0.010030531405773419 0.001105273144167363 -9.590627777260735e-05 0.02738845911062835 0.027050746736211093 -0.0747067325965072 -0.029708168185350044 -0.030377271477564877 0.034976837572424875 0.007656904287037812 -0.00506040912132289 -0.02581337121229562 0.01912942432525332 0.01112369247483951 -0.002388482666789959 -0.033244327419383664 -0.031126882727969672 -0.017752706418889635 0.030643093560104785 -0.012627924022387252 0.038651163192695834 0.049652281286195005 0.025264362832608217 0.03121940726320544 0.01833236440215166 -0.009890697591261469 -0.025960002980599316 -0.019389737035375547 -0.0045249616939558425 -0.012284185662468073 -0.0071894733179720975 0.03721977411327925 -0.012818223954558927 -0.03336130456778238 -0.022181518331463836 0.021071633177561812 0.02684950281067669 -0.023718727456531072 -0.023148498748654343 -0.016221856485356734 0.03560556960836324 -0.026160819182427065 
426 0.004469326230408635 0.016082955038219746 -0.006414466285855105 -0.013639018932954166 -0.03931161595251628 0.01382697778360457 -0.04063699465017402 0.0030810505524581054 -0.003173530945205373 -0.021463949913693464 0.0016111189160224507 0.0016008647513107697 -0.006481862605006669 0.0029825709140268277 0.007608970976729255 -8.194905910312579e-05 -0.04596392830259402 0.015470961653470672 0.023698477430811563 -0.000249326258491325 0.002394202041240979 -0.022536171233454225 -0.014027544709221745 -0.013567513484260874 0.04451727888521823 0.0022398506675550436 0.012179387143488287 -0.0089896245810234 -0.012425617676446126 -0.014909909392112246 0.005880888556894457 -0.0206620962576687 -0.006648470223227659 0.0042336400846208645 0.0178120336952907 -0.010748242291677255 -0.01708172601231796 0.006764720604685672 -0.038506961504340756 0.003915388080807236 0.013258030857114094 0.02158039676686728 -0.012813389165396752 0.008233012413365104 -2.9687204569443013e-06 -0.037676073662563564 -0.01001326894128472 -0.03006184058385642 
608 0.004598387301692258 -0.05270602193615861 0.02840873491496899 0.019583528880696477 -0.03618584649205891 0.07218334236511408 0.018785776764480677 -0.011200246701635407 0.06938363143678339 -0.027245997600498357 0.012851928927665018 -0.03520414383467789 -0.03602686061026385 -0.01992497222121007 0.014923192416669171 -0.015499199920407951 -0.008604382355554429 0.03281523268481697 0.011409519591598844 0.04549105944550025 -0.0050673204702793165 -0.03755635886700377 -0.00014767278806183793 0.0003369175946484842 0.043814455847942003 -0.007714972631253904 0.0663318947132077 0.010800469149670497 -0.058104493092370146 -0.016637269603271745 0.011586078962639195 0.012073690297546078 -0.0245380014621743 -0.019136076799324456 0.032119216407518705 -0.01035227477491579 -0.059913092648313904 0.003661674104904937 -0.0036339749743121005 -0.04930345247582254 0.024243602685092774 0.045390842533810975 0.047241707937628 -0.045069462985582114 -0.04959612956160592 -0.010119466659949844 0.07642407480474822 -0.07510531205339137 
127 -0.007223100197472179 0.008793122111926331 0.0006967898481666292 -0.00016693044869825875 0.002179239264500543 -0.025953014419691507 0.006249520607472446 0.01936960400145667 -0.013898373606115207 -0.03195190421705388 -0.016171267445274265 -0.004307316311260019 0.007093723074676377 -0.009208911954868962 -0.014168798991085372 -0.028051657625729393 -0.008399643718080645 -0.014650470982283672 0.0018036164469041366 -0.007330781284967308 0.01788881825120432 0.010505658871589786 -0.006703211003311284 -0.031920170609792256 0.019508201118455873 0.0058709254406423125 0.01059691351687774 0.017836445291194332 -0.017936124438381405 0.008662331471047722 0.0458324995842125 -0.021755149466528706 -0.012605654139741056 0.003971707723077693 0.007723048747793325 0.015748739189948575 -0.02515656949004107 -0.007234309494703795 -0.02551492671195149 -0.03735399776180758 -0.02217831232376431 0.011855416967977941 -0.05055870628215855 0.01149244713848666 -0.016867144683280363 -0.04303094666153016 -0.007233695624073603 -0.026933902512684366 
220 -0.0147491021927831 0.06838608645368054 -0.02028641490630508 0.0425645265217083 -0.021035882060427582 -0.053870090031528074 -0.010915057219409089 -0.02093653371500095 -0.03960010285849239 -0.000283707620465526 -0.03169433650939734 0.02013161960736085 0.04451334820991679 -0.014631585385722536 0.03233239023266578 -0.04716567230250035 -0.0004478408578462441 -0.056396783291717476 -0.028319928948160378 -0.007617620501214341 0.008985532321711485 0.03951327714561489 -0.0027804618971514214 -0.01420269555883546 -0.04484040919950793 0.04462854084233974 0.004875180367479591 -0.006138892527247609 0.015155232471531138 0.04533759233841105 0.039821969819972845 0.004800493517121549 0.0008237862936735287 0.05393945468948277 0.04972259955843381 -0.012890812998503831 -0.03914638131160954 -0.013161916001281953 -0.004549602236847321 -0.02401121668356315 -0.01966926094879004 0.005223590350060484 -0.04014070997064416 0.016102988151332848 -0.033443184885254176 0.003790844258451867 0.003806065629340008 -0.024759923443932685 
873 0.019509271736817775 0.010350404704766421 0.025763842129217503 0.02086826817035987 -0.010237052995949248 0.022632361273705087 -0.031442566423624335 0.033043018135273224 0.01997738707833668 -0.030532587603236367 0.07321670538436571 0.014376972682406577 -0.020214306619531115 -0.0027444951701482896 -0.03331347934798779 -0.02035969682788752 0.048433725508434326 -0.0209866570926998 -0.024844593190788803 0.034815571086529704 0.029408770988578786 -0.005676942533748646 -0.04468134699177833 0.023479928402821218 -0.03832613686051073 -0.03185810064091523 -0.03629892974055713 -0.05129916509665221 0.02812736868013175 0.06763295564326637 0.02624529528693796 -0.04626205006296791 -0.03194239381587897 0.03954718448127331 0.017747558693168613 -0.014969933039355524 0.029901845064854687 -0.0353367712876793 -0.012495645832281264 0.0021929703036895004 -0.056723198869905386 0.02519165298175304 0.055597251279405686 0.0172941188723942 -0.013066898950605556 -0.003908095817295668 0.0025178546655786585 -0.03465170262929265 
876 -0.007176348520598924 -0.0007608742530003833 0.07069635321564037 0.03325854346910901 0.04079836912536808 -0.04498558601998879 -0.05047988175986177 -0.011186635348916903 0.044590063461202784 -0.0027936358341088346 -0.007952447920561921 0.010669929160064628 0.012168164716019452 -0.007009343638546594 -0.01692325815350055 -0.016534263097710326 0.018697679424272966 0.04159721485242801 -0.014404835057666645 -0.017593115588075386 -0.0036807370657752437 0.007331534208430805 -0.008764526102107631 0.009740031566074248 -0.040239110511346425 -0.025251281918771257 -0.03723703859643574 0.010418460734108475 -0.010627014919443019 0.007711629232937539 0.06328685456780486 -0.05292432360885196 -0.024730272300093108 0.05172313049812668 -0.010127980372400145 -0.018736946509977738 0.003254849824718808 -0.03729309921333478 -0.006455393515841135 -0.011622929466156002 -0.04121936660427876 0.021829157777618697 0.042221263900115644 0.004363345188505946 -0.017087331445035166 -0.0010742932800368048 0.007424374266587205 -0.02752389618646288 
103 0.03230445543345987 -0.012166183005855313 0.018615681947136198 0.02691533186600453 -0.03233699443887135 -0.04246083183592289 0.012146332368173758 0.017431288704685757 -0.022509993787521984 0.06856692829543339 -0.016529812823812537 0.017915360990790687 -0.05189751208933475 0.00609454461966949 0.018240810994373437 -0.013770591389087386 -0.03375339573362419 -0.039213241200940135 0.0640245321550232 -0.027686357511432644 0.018000581769040194 0.03034321611811625 -0.06484943154357951 -0.023345063840144866 0.012152927748505665 0.021839211859945442 0.007500450980950301 -0.014756490231911177 0.02681590222924044 -0.002978942794338758 -0.03408358608971153 0.0006494354299785353 0.02833514945615733 -0.022739459383987304 0.04312516691755343 -0.043827055355062206 0.11764716888247262 -0.06246408080337077 -0.003958818190631156 0.043632765582292295 0.040794028024571743 -0.04615103974786167 0.0015107677735145052 -0.0585302321677217 -0.0733181657296691 -0.05255322477291539 0.0022126875199962146 -0.07236189412947391 
161 -0.040288954904116506 -0.010622328772268099 0.032017566419629 0.01259747911748269 -0.0456706296694791 -0.006614416466544087 -0.03438952911389151 0.036967038700199024 -0.03419567564081467 0.03100082886934624 -0.0053782239534075306 0.002423509592759853 -0.0113678768862822 0.0167291065315301 -0.008438276215914066 0.00364821832180852 0.04906933895256695 0.011487580760444932 0.04397797633625084 -0.011821081721702925 0.03987887005307752 0.008553349833675394 0.04551832712140817 0.0015964019838899562 0.03777579994035752 0.045823249428319765 -0.001622874067962989 0.0036237865069024136 -0.027771454318803575 -0.0017052222860816837 -0.0020912054128153176 0.04577951298047094 0.03602428437838843 -0.013607308328082447 0.01686057040799631 -0.025509742649462007 0.02251877440384327 -0.028705582957874433 0.009213335195207204 -0.018154301682440876 -0.01735585729837 -0.012075352067210951 -0.0381082733218709 -0.011858575330860818 -0.01609473912549434 -0.04378512253941019 -0.022066770130438444 -0.03208934921740415 
433 -0.013325555025856826 0.04553197997096308 -0.06221757905926045 -0.002211159431869581 -0.011679832431638872 -0.010521263630650464 -0.030055126914535792 0.01642335384814726 0.03831451134532393 0.005698767663507715 -0.007708965800687885 -0.03601936931239287 -0.026025155770408596 0.015232946083277221 -0.011256059603496314 -0.05517993889312027 -0.007506736820233119 0.021625503988560096 -0.043090166192212676 -0.012028437391147367 -0.0058551262245409045 9.324727986474989e-05 -0.025489173875810747 0.046701938634259796 -0.0019068765620386446 -0.01923216652060615 0.025742260669192173 -0.0012659606270014941 0.00794918686821471 -0.010944295239642923 -0.030109476404784702 -0.011643619565740466 0.02617505660986946 0.012495857184994838 -0.02567707648444114 -0.006429113317779725 -0.03933500188726289 0.024410291906565105 -0.028832845174364706 -0.0038456530897939107 0.008238207697007054 -0.034304246814680577 0.025906401647208876 0.013762299725112039 0.011231858633724575 0.0008866636359754921 -0.024209297090100983 -0.040587312591814625 
445 0.005088503321037267 -0.03667820190585611 0.005721195442493929 0.03837960869945488 -0.05079854974467564 0.003779124778901948 0.017218323603410825 0.05555416745427477 0.06017115814293161 0.011685302233678922 -0.010077678347222568 -0.04108616945413645 -0.04786945640151385 0.05779706325298887 -0.024192926464061227 -0.07683943393667135 -0.024082695122527774 0.10734492030861585 -0.01942420357586564 -0.015763525735735414 0.04972509443014809 0.027689049678932945 -0.0099996861333789 -0.04939346255968994 -0.005356986749634899 -0.018559354153945256 -0.010770787313155235 0.025535354752802514 -0.07656477183994931 0.03748740705729418 -0.009767182642069371 -0.03596917056000174 0.01778743785721372 0.06545949087442256 -0.056206785040627885 0.04391059995199254 -0.047104214003484614 0.03011062344124017 -0.004353809892615896 -0.013728811575932948 -0.019337361246942027 -0.029932045419857514 0.03746629736818067 -0.016904197935567543 0.004161787358080881 0.02894015465693224 -0.0867420822571075 -0.07351902634372481 
713 -0.04589365576736089 -0.0004016927293896157 0.03170158101558488 0.022525301392182784 -0.020817657537155757 0.0003732732141013313 -0.019513266757573172 0.0136784747635606 -0.010679119628769778 0.0013876749534005564 0.03613213299606637 -0.014835578738446717 -0.0382539670693379 -0.03994038626049025 -0.0018089617862745368 -0.0027919558040766347 0.02928946901487922 0.05817983588416087 0.032572368747179066 0.010157487701100294 0.04433489915715555 0.02888710603068179 0.002960271594861573 -0.002221435725767275 -0.015176194316022311 0.025013729365179014 0.028076281368986166 -0.013406516423790671 -0.027394944291482416 -0.007210662526582808 -0.019646761360593696 0.014007824195623624 0.011741396967487413 0.023128124293850024 0.04034382008066977 -0.024282908471398332 0.00516711808840261 0.04811567716835955 0.05811852304365579 0.016897796913345118 -0.06364580721947989 -0.010958859167568582 0.018559117748547994 0.0046066664937283635 0.010454201265306585 0.0017148325273192923 0.032934336167967426 -0.03189457785640749 
757 -0.007711054033209847 0.025357112104175444 0.025684642605076434 0.01739671278512269 0.01611602512154012 0.0004933450172583501 -0.029479939108580513 0.008827258072206422 -0.03911498283390452 -0.010104673660451154 -0.020214023263299567 -0.022339977195325118 -0.05584438406677619 -0.019486034175146053 0.0494534324827844 0.019133112780813012 0.0068583486209928945 0.01801883251499702 -0.034403802895623226 -0.02960763628341392 0.01640276561260456 0.02812333920976446 -0.03410424933031134 0.0339995324720255 -0.03007289783272624 -0.006860639446822748 0.02448780572838781 0.04843503887117119 0.008368627080982429 0.0019180053532473265 -0.0009158540042326805 0.02696544285988095 -0.026728824077225825 -0.025491195261386605 0.03634009558136407 -0.007230887013002172 -0.00406939265642503 0.006399359279016742 0.043937929223186345 0.0554923584237093 -0.07140867531410368 -0.025289955737608602 0.012819802411307783 -0.0014550302048527521 0.010202198322489447 -0.007709527496122346 0.02062019118927328 -0.042420526577212396 
22 -0.04208594134630842 -0.007441772105491791 -0.004062521200198677 0.024889029616228662 -0.020530812142850872 0.03176695784248652 -0.0034293609503771145 0.010952251538244398 0.03331740058315992 0.010153710398236288 0.0036417685602019314 -0.024400192153606524 -0.04543909872602956 -0.012497631737925152 -0.006709276091703425 0.022793959754442424 0.0008546187056066066 -0.04500118441882703 0.048873334267347864 0.01841414098082596 0.008277956522447361 0.004688503805056455 0.027213268145026302 0.007454216269962163 0.009847653536904357 0.050484786662244235 -0.015706916714061835 0.003971632213067884 -0.031204697921464724 -0.0287838504130721 -0.0013379316537843282 0.008184078436626774 -0.003984684004377463 0.003659392364031561 -0.0011086142038798587 -0.02833074570782748 0.03623202909826011 -0.013007753135319582 0.01564969928316372 0.0003222414172390537 0.03250161596942071 -0.03644062897639301 0.01953895308180391 -0.02900338104521563 -0.03873214969094646 -0.02166424075781232 0.002296534805105857 -0.03792591757202341 
199 0.021822604588490967 -0.018908090196853335 0.014160866123628484 0.017534337987557703 -0.029287205933599392 -0.023575120593419947 -0.010930279252087052 -0.021612326231108044 -0.0257854033096062 0.007995804995457672 -0.05479283261640686 0.00659695171306962 -0.016736351383743835 -0.03727342726929099 -0.004636235755592953 0.01657874939832486 0.026922386460376792 -0.029678488570392087 0.01502654399802052 0.002802573057080716 0.0031762035380401995 0.01143745403360379 0.0015608869834324867 0.02275324667165722 0.0222694178405115 0.035156801999342645 0.026496106145131156 -0.03906877273408102 -0.05245346936768298 -0.04742226170670714 -0.0023267922459908595 0.05071531222412121 0.014888953518909669 0.021285297912432017 0.021745246729528444 0.008454537961825518 -0.004808814550036786 -0.011477216482916237 -0.023875054094855245 -0.03660152410437218 -0.01590167897481337 -0.03129278683655979 -0.02402076893454434 0.01939058545283004 -0.02325823955371783 -0.013229764423862221 0.008144210457449577 -0.035982317952561724 
263 -0.012495226990842245 -0.007128321877141139 -0.026926136188614724 0.01916583142447561 0.057123441598450175 0.005166307749657109 -0.01196957748631407 -0.00814016594168847 -0.06549500652983067 0.0383556880860257 0.0425018734246063 -0.004844012689465796 0.020295546600149376 0.035448425976994775 -0.006736827622553688 0.012887053465741104 0.008067384550802352 -0.005908798049411802 -0.06473666151635452 -0.015435991904162814 0.001637429247625548 0.04707537424561301 0.013579318726914869 0.0008234966366680536 0.05210525253113778 0.0022741577677475393 -0.012104975743500968 0.04749771701272073 -0.014016792233796323 0.016217576852519452 -0.07415972461745764 -0.002363972583041827 0.018703547193180667 -0.031198247674529188 -0.01032524623492409 -0.018096800664770856 0.004729123664620878 -0.04452444602722274 -0.02759740285493106 0.07478700134674048 -0.03029436918659768 0.09848867942258259 -0.056883097459973504 0.06532018197673199 -0.011610821810724755 0.07537254305175803 0.0012765065650637234 -0.07162630629231545 
305 0.011657741104933202 -0.012562219714559456 -0.030601657050103016 -0.026036007396534177 -0.0010033002675037075 0.002552223859139251 0.0035001272334209657 0.004759113160333437 -0.05463749157153369 -2.041502044834727e-05 0.006098460780857036 -0.02090209425541063 -0.0003644997797154689 0.02437551182774387 0.00814784683998679 -0.010325851820865565 -0.001819578052682041 0.008382087580465459 -0.03287104520181597 0.027842019435134747 -0.012164457638309102 0.006500712354489405 0.020682564122050596 -0.006471407171378532 0.007623957285571304 -0.0005813068645870809 -0.011314283346441573 0.030100755385062794 -0.010238082433146799 0.01712816086028538 -0.010984080292867503 0.015761737713894428 -0.03028679423963992 0.0019071331368948048 -0.012368212996908389 0.017108019506824574 -0.0009047442101679924 -0.005475772302591888 -0.005076512046978469 0.03234987133348337 -0.0019117927317495234 0.028185134427660505 0.003809947891779591 0.007474427638908977 -0.022994639357020178 0.005283974332822775 -0.026087344906606386 -0.024624923437895678 
820 -0.029065074278605114 0.03357165955950637 -0.009643749028117246 0.011327202728407757 0.0005414199000739746 -0.0014428348998143559 -0.003026524982665412 0.03073198750203986 -0.002305885504136313 0.03124898160324469 0.002907486224839704 -0.03738787219506685 -0.036256682158686736 -0.041583738203452396 -0.023424889336213426 -0.014401255510700295 -0.012894244772774122 0.0306133045568094 -0.021898931368204713 0.003752432666861716 0.009328294053267723 -0.012693521724740798 0.00619024265703176 -0.01604212009223327 -0.0509843864754818 -0.014710965224177766 0.007997022272297321 -0.00955323826812468 -0.006230569121341316 0.013991065440339526 -0.020334220346927712 0.003405891708274068 -0.0001294433691859586 -0.05345146384846695 0.0061253713804600395 -0.013408209115595999 0.0010126141148132015 -0.018291139614714104 -0.0058739603195729255 -0.01113701335567441 0.014014959363568516 -0.016557737302983887 0.016258457063960036 0.03964181181107114 0.03241009221857272 -0.011424654570004219 0.00017261006128652847 -0.028213821021805592 
938 -0.03492998098389819 0.0022605541370500693 0.02834046059625433 -0.01594719500748763 0.03210608072142388 0.014197840792523918 -0.03574874511147056 0.021825795730743624 -0.03736299898972388 -0.0009367043086346193 -0.0015313102577992125 -0.003073011289867884 -0.011269347863899343 -0.02720540211300561 0.0049723291684409445 -0.02103543110276431 -0.02430319655941466 0.029528366424009602 0.008410583401108873 -0.02308610346986731 0.0007468690737037329 0.006119067803915886 -0.048384476981745216 0.010277385847360284 -0.026855788291868826 0.023447386573364364 0.026612147066978186 -0.008865057577867532 -0.0032393310027302585 -0.016545555530876645 -0.0028059230449038624 0.011111183774085742 -0.01833621065880176 -0.042689907276060764 0.0017583726839652696 0.0011640229618832675 0.05202189083368734 0.10037977234938124 0.07049787825328027 -0.07161031292837458 0.04319813679122564 0.06124644958731907 0.0037887845016718307 0.04137502166767229 -0.0028878169782570796 -0.0029411043328257326 0.0029160798564196173 -0.05416694817290519 
607 0.05244511482769748 -0.011396975785676283 0.039095554961274676 0.029889360677158486 -0.04777315597217473 -0.03320479546887822 -0.003060663203293103 0.02059710648004655 -0.009508219139006218 0.015577261043403054 0.02701667496342499 0.042383841557449516 0.011532378957827988 -0.016412153697526452 -0.09925734256982624 -0.03551019630761287 -0.013788472333956484 0.005313484872145169 -0.006418552816596793 0.037079063807191184 -0.012806286198126297 0.0045292294145310875 -0.03165324503462666 0.008220200303564828 -0.007457926219652277 0.02820876289443164 0.013682280974954403 0.02030408716722742 -0.005439537830673027 0.0011233300358029505 -0.011915199160242472 -0.008196940179018251 -0.005003229256528457 -0.02323546951629096 0.011216681973176722 -0.03048792268155708 -0.029921383490199172 0.006735902774025295 0.01709006806115623 -0.03822442389619501 0.03766932912774038 0.007430544262697332 0.01832385200672383 -0.0225834008212279 -0.010220353657023656 0.018542419219567858 0.042021702961386284 -0.041352353230108274 
612 0.0008349533338120085 0.017633505582392187 0.054111364595616745 0.019136081228627432 -0.008137619499848085 -0.008353478078621879 -0.023559910804862253 -0.005516160930200747 -0.016755978525776725 -0.0038547571578327277 -0.02281927382882016 0.03955966160995517 0.035090184991930264 0.006369492860378505 -0.021217734689787 0.00816547982066326 -0.03737568086340911 0.06477855454771868 0.007500424778097722 0.01854953827003458 -0.0187509256949071 -0.04004565072123435 0.009136849336698621 -0.014207106314265916 0.005484447839670448 -0.03131399684627506 0.019071800348232408 0.08089862756557864 -0.002503918318404489 -0.004829973630637151 0.021043327209215302 0.0025298459736763984 0.052448913019807385 0.03952736460411934 -0.06637891788749939 0.01623103593821317 -0.03957280275045388 -0.014062727374366665 -0.04019389825649156 -0.02177733993815805 0.012349391550200001 0.02157637521592419 0.059296340670992466 -0.05977158034083819 -0.0238270861084264 -0.002562860498292306 0.014714062360319287 -0.05216740928572132 
915 0.01596775274703748 0.046897791254887584 -0.009533036484955846 -0.010479792165552159 -0.00043271264105776224 0.0521179157162143 0.018929441084613707 -0.0281774116835572 0.006819525322563439 0.009072114656706928 -0.032891635133215795 0.020431443063819492 0.015144047623862511 0.0013233621132726567 -0.00921307029886455 -0.0017817163260924836 0.014210168952936676 0.01653237085794701 -0.01100681519747992 0.007738367352004298 0.009553307063794887 0.0037239542523147154 -0.018027759475336292 -0.00489946631410116 -0.021985538542945226 0.009202849583312713 -0.0443353771787548 0.00024418783412716256 -0.03620199666136751 -0.036843498424141106 0.018074565036925356 0.012396719789793292 -0.013673038581235255 -0.0030350654473720574 -0.037736951608166376 -0.008756262441382655 0.013591437426736457 0.04679860630805961 0.029404983701475422 -0.0289671185083908 0.009256612667959645 0.027143568260382108 0.00894307900795499 0.00626406216607278 -0.007712390035904848 0.00800779591391635 -0.021879186111140876 -0.02558795108253449 
902 0.00041705194864082945 0.01741605357390348 -7.114747164013857e-05 0.023615785439769717 0.001129987345817171 -0.04278753942564394 -0.022847613620262323 -0.03046620619276366 -0.04168086758541825 -0.03206260206598824 -0.013316069749031736 -0.02841590418739945 0.007802944235323129 0.007832878428439896 -0.0017066422349091706 0.005074945866709137 -0.007422514748928822 -0.021627536968558268 0.034832228738897325 0.015429148180034172 0.011513149050234288 -0.016488927258246737 -0.005760800118708964 -0.028424756212662307 -0.027147319838590065 -0.029505273354961455 0.01639351525976924 -0.014085233090972015 -0.0287775690784747 -0.03527518223326478 -0.03061065277015906 -0.01611654214765606 -0.01780065448240309 0.014282446198019529 -0.046714617900621765 0.0533656201018035 0.05884603327576634 0.0503231370657698 0.0600652515687722 -0.04959734269964141 0.0302407876524619 0.053722320648068006 0.011806767149655723 0.013293729789790052 0.005569071599220731 0.02672545129984172 -0.03784418483308429 -0.04718249626012462 
904 -0.01256699186548189 -0.00011491661430587907 0.011511902691512293 -0.0008706441211155588 0.07626412686317427 0.00041068151488742423 0.017750515089663205 0.02324345050583156 -0.03824988168405917 0.01594081597751261 -0.011152887406093614 -0.00946422903931317 -0.009943453550497878 -0.028420193598135093 -0.027609538640175044 -0.016347153677993446 -0.02486644364421951 -0.007850925180815463 0.014651576782766887 -0.029627699268837175 -0.05416415751196806 -0.03844051141433126 -0.04715962733762531 -0.0008907023581622834 -0.011130665627342546 0.009966601074818403 0.03442869439591717 0.0161141911214767 -0.0010814183879001512 0.01592562051833493 0.023753106685819928 0.0023318906119452532 -0.030314791445913678 -0.0026153729718537584 -0.009114263315345164 -0.005618740029778737 0.06602824552696249 0.08232293914206945 0.09322489616715186 -0.07260509748289491 0.04389346857973944 0.052814829158867496 0.01844778063161809 0.033207045308500285 -0.009762328589398657 0.004694587764310441 -0.018382902968581753 -0.05618389359519709 
151 0.0010699157432042653 -0.01716768541222801 0.000905813672629357 0.02723762599632346 -0.019840356860967374 -0.0021088754775089153 0.00794421722570177 -0.00226615013994186 0.025775388749547386 0.008502532780356632 0.009988744899273263 0.0555145136249998 -0.027550584550734298 0.019567010863456365 -0.017741306415971162 -0.01933887330664704 0.0013537311401197955 -0.03464746810353013 -0.009727254500890745 -0.007285570386278692 -0.013526284101722918 0.018788754743984882 -0.01962895118476266 -0.004297400590291768 -0.03472713821890298 -0.004574181811462491 0.0057313379156164225 0.04644882718944062 0.0009150834412907573 0.02666947772700169 0.007553292597086539 0.005399756119512151 0.008401652116200042 0.04038766958057496 0.023941427144471228 -0.03318608538714387 -0.001020720209326134 -0.03024324591197251 0.002275041744238527 -0.02769261465120134 0.0037020667731365547 -0.017990840473969868 -0.019083611197775022 0.009789064788159116 0.0025419199957668888 -0.019767968806126867 -0.015316167116959824 -0.024962420087047407 
83 0.01165686741980573 -0.00679118236973963 0.00798322441206091 -0.02263799366452745 -0.006813342471716778 0.023585583068281273 -0.00279931200089052 0.005299357870366662 -0.03339192702080764 -0.0016019285975889717 -0.025338833216259887 -0.009598580650161507 -0.0344155939145802 -0.003153366128031116 -0.009988731103328383 -0.013265769325646302 0.011931697695506789 -0.030625862516113024 -0.00972086850204039 0.006531770092518258 0.008124034852237491 -0.0004910800696560024 0.024118188566103316 0.011964332380732027 -0.0017202944300484448 -0.014813794337568333 0.0184087831346109 0.0021043982123399745 -0.0438063919298457 0.03678036067897514 -0.017021569466827886 0.017022378876188942 0.019258221080033652 0.04631040959196697 0.011177785286537716 0.008428598423993693 0.03181448985732575 -0.021676860591883524 -0.006644302653787343 0.02167685278807462 0.018757738988847392 -0.03695611845256555 0.011661487938029144 -0.0003184974000056747 -0.01823314397454793 -0.03541021365081123 -0.008422076285369628 -0.023301411428510065 
456 0.054891368117866914 -0.006467837506630646 0.028950169017415955 -0.05299599445317323 0.03433187764249919 0.009522108349084454 -0.007140344408139408 0.025719187326617623 0.027354629375745437 -0.01770172491033914 0.0010971122994273264 0.029592354839978265 -0.03666460534260856 0.026381296018715965 0.013002989004860672 0.021630951264307405 -0.005250960442873091 -0.011870753889274492 0.03136163299081897 0.015584758185345736 -0.015055515890166946 0.0276180735080816 0.057403739570413496 -0.04549624327800324 0.020344812671313273 0.001204736554550627 -0.009222153473296397 0.02174615295099767 -0.01413466311082014 0.059111461907261006 -0.019262799223314208 -0.0009365632444312471 -0.009742679996318337 0.025681886644179964 -0.0023964941305608125 -0.014238326886284638 -0.00833239143311228 -0.02843495106044477 0.01675826410212336 -0.021643096482117055 0.005648783963481202 -0.05653460815941958 0.03680795967179334 -0.03585271661634593 0.030780049285263303 0.006370903537711818 -0.04473093633613693 -0.049881167506246486 
846 0.01752395496252427 0.00897398428050856 0.0026276856558214334 -0.04860905572149875 0.004861601911082309 -0.005948880793109843 -0.022040025305013713 0.03473056723025345 0.03564958592796497 0.016950541192945444 0.007937493413131314 0.008800372141854345 0.005571552898217749 -0.002668900387157364 -0.034605860947837304 -0.02697308993949016 0.014947128691567241 -0.02281911074132157 -0.009624151413665908 0.005057245921029349 -0.018549551295791285 -0.008565786387196921 -0.023231169550122683 -0.001686381541986989 0.021259974261055532 0.03640633082345221 -0.01214725379559999 -0.01802709972502747 0.005303746927264141 0.014928367333933237 0.023327016424975932 0.03184098660019149 0.011181174972142018 -0.0012101962259003381 0.009888978178989346 0.006576358231728864 0.00021821483169618772 -0.04892780959770462 -0.021167783688758907 -0.01340379855902246 -0.00514822678747888 0.040808384907883764 0.0381419785048223 0.009217830246279887 0.019916361466678453 -0.007368195500837856 0.0007281231635602578 -0.027302978486537788 
359 -0.012992799659818614 0.06622742243952029 0.005959149026505585 -0.04961900513554922 -0.04558722302283034 0.010266652264341394 -0.03255607561581498 0.028807501811972686 -0.042671565339814636 -0.04856527267228849 -0.0516322130389326 -0.014236053468054443 0.07763875328777278 0.04112841718604074 0.024798811610038423 0.05738831477750582 -0.03274046964965551 0.004435992599709554 0.06668146125984116 0.05294447578665052 0.013292434059012214 -0.008007181026357058 -0.0042770253851854055 -0.024596520938626985 0.025580212658067626 0.03914652144741236 0.0030812454225551686 0.027282142857860486 -0.017827392375044684 0.038943713062625056 -0.01873325455678171 -0.019816977966490814 -0.02631056500472924 0.08823839595566157 0.07989250554783317 -0.041176672527044995 -0.02125816405442244 0.09228657532492619 -0.040996975936015666 0.024867858270385502 0.07479649100501223 0.0793666322004839 -0.05140434022712394 0.0519484427735487 0.07536115796244637 -0.15077380064461424 -0.0011285416337072263 -0.12173604355673001 
786 0.031330094532178436 0.01201679324432571 0.0075201688548644065 0.019035247665370056 -0.004286303498778215 -0.009448324747179486 0.007596880241873395 -0.022686134890954748 -0.028921518161483813 0.011920991102470033 0.006341824189476354 -0.018340716513582545 0.004528379556299113 -0.008423161848456494 0.03125731232248615 -0.02520543357340582 -0.052948026598397105 0.005369646157346984 -0.036961214869145796 -0.00018740556124049912 -0.005592074734343828 0.03604803665822515 0.023712868258009768 0.02490730579785784 0.03731830535062551 -0.008334788635605142 0.0019650726315956915 0.01782775041798259 -0.017948282618341305 0.00680043520978929 0.03817142431045197 0.024171669837502973 0.007073761640016018 0.013337474461016059 -0.003026698219776095 0.01599934269609824 -0.053286328782627915 -0.03255256898641461 0.008002657146607136 -0.025058897465787853 0.04805111054223771 -0.03035534758302424 0.0040471619042188765 0.05538198803726116 -0.006304195788000744 0.006123513361445861 0.02090210897906878 -0.026146589414192564 
